digraph Tree {
node [shape=box, style="filled, rounded", color="black", fontname="helvetica"] ;
edge [fontname="helvetica"] ;
0 [label=<Iva_N3.5 &le; 0.5<br/>gini = 0.03<br/>samples = 100.0%>, fillcolor="#ffffff"] ;
1 [label=<Iva_N6.7 &le; 0.5<br/>gini = 0.03<br/>samples = 75.5%>, fillcolor="#fffdfc"] ;
0 -> 1 [labeldistance=2.5, labelangle=45, headlabel="True"] ;
2 [label=<Iva_N2 &le; 0.5<br/>gini = 0.029<br/>samples = 65.5%>, fillcolor="#fefbf9"] ;
1 -> 2 ;
3 [label=<Iva_N2.2 &le; 0.5<br/>gini = 0.03<br/>samples = 54.4%>, fillcolor="#fffdfc"] ;
2 -> 3 ;
4 [label=<Iva_N4 &le; 0.5<br/>gini = 0.029<br/>samples = 38.9%>, fillcolor="#fef8f4"] ;
3 -> 4 ;
5 [label=<Iva_N3.2 &le; 0.5<br/>gini = 0.027<br/>samples = 31.9%>, fillcolor="#fcf2ea"] ;
4 -> 5 ;
6 [label=<Iva_N2.1 &le; 0.5<br/>gini = 0.026<br/>samples = 28.7%>, fillcolor="#fbede3"] ;
5 -> 6 ;
7 [label=<Iva_N3.1 &le; 0.5<br/>gini = 0.024<br/>samples = 25.1%>, fillcolor="#fae6d8"] ;
6 -> 7 ;
8 [label=<Importo &le; -0.037<br/>gini = 0.021<br/>samples = 20.9%>, fillcolor="#f7d9c3"] ;
7 -> 8 ;
9 [label=<Iva_N6.5 &le; 0.5<br/>gini = 0.012<br/>samples = 13.6%>, fillcolor="#efb286"] ;
8 -> 9 ;
10 [label=<Iva_N3.4 &le; 0.5<br/>gini = 0.011<br/>samples = 13.2%>, fillcolor="#eead7e"] ;
9 -> 10 ;
11 [label=<Iva_N3.3 &le; 0.5<br/>gini = 0.009<br/>samples = 12.8%>, fillcolor="#eda774"] ;
10 -> 11 ;
12 [label=<Iva_N6.1 &le; 0.5<br/>gini = 0.008<br/>samples = 12.4%>, fillcolor="#eca16c"] ;
11 -> 12 ;
13 [label=<Iva_N5 &le; 0.5<br/>gini = 0.006<br/>samples = 12.0%>, fillcolor="#ea9a61"] ;
12 -> 13 ;
14 [label=<Iva_N6.3 &le; 0.5<br/>gini = 0.005<br/>samples = 11.7%>, fillcolor="#e99558"] ;
13 -> 14 ;
15 [label=<Iva_N3 &le; 0.5<br/>gini = 0.003<br/>samples = 11.5%>, fillcolor="#e88f4f"] ;
14 -> 15 ;
16 [label=<Iva_N6 &le; 0.5<br/>gini = 0.003<br/>samples = 11.4%>, fillcolor="#e78d4c"] ;
15 -> 16 ;
17 [label=<Iva_N6.6 &le; 0.5<br/>gini = 0.002<br/>samples = 11.3%>, fillcolor="#e78b49"] ;
16 -> 17 ;
18 [label=<Iva_N7 &le; 0.5<br/>gini = 0.002<br/>samples = 11.3%>, fillcolor="#e78a47"] ;
17 -> 18 ;
19 [label=<Iva_N6.9 &le; 0.5<br/>gini = 0.002<br/>samples = 11.2%>, fillcolor="#e78946"] ;
18 -> 19 ;
20 [label=<Iva_N3.6 &le; 0.5<br/>gini = 0.002<br/>samples = 11.2%>, fillcolor="#e78845"] ;
19 -> 20 ;
21 [label=<Importo &le; -0.038<br/>gini = 0.002<br/>samples = 11.2%>, fillcolor="#e68844"] ;
20 -> 21 ;
22 [label=<CoDitta &le; -0.335<br/>gini = 0.002<br/>samples = 11.1%>, fillcolor="#e68843"] ;
21 -> 22 ;
23 [label=<Importo &le; -0.054<br/>gini = 0.001<br/>samples = 7.3%>, fillcolor="#e6853f"] ;
22 -> 23 ;
24 [label=<CoDitta &le; -0.456<br/>gini = 0.009<br/>samples = 0.1%>, fillcolor="#eda572"] ;
23 -> 24 ;
25 [label=<CoDitta &le; -0.461<br/>gini = 0.013<br/>samples = 0.0%>, fillcolor="#f1b991"] ;
24 -> 25 ;
26 [label=<gini = 0.0<br/>samples = 0.0%>, fillcolor="#e58139"] ;
25 -> 26 ;
27 [label=<gini = 0.0<br/>samples = 0.0%>, fillcolor="#e58139"] ;
25 -> 27 ;
28 [label=<gini = 0.0<br/>samples = 0.1%>, fillcolor="#e58139"] ;
24 -> 28 ;
29 [label=<Tdoc_TD06 &le; 0.5<br/>gini = 0.001<br/>samples = 7.2%>, fillcolor="#e6853f"] ;
23 -> 29 ;
30 [label=<Iva_N6.8 &le; 0.5<br/>gini = 0.001<br/>samples = 7.0%>, fillcolor="#e6843e"] ;
29 -> 30 ;
31 [label=<CoDitta &le; -0.46<br/>gini = 0.001<br/>samples = 7.0%>, fillcolor="#e6843d"] ;
30 -> 31 ;
32 [label=<CoDitta &le; -0.46<br/>gini = 0.002<br/>samples = 1.7%>, fillcolor="#e78a47"] ;
31 -> 32 ;
33 [label=<Tdoc_TD02 &le; 0.5<br/>gini = 0.001<br/>samples = 1.7%>, fillcolor="#e68743"] ;
32 -> 33 ;
34 [label=<CoDitta &le; -0.468<br/>gini = 0.001<br/>samples = 1.6%>, fillcolor="#e68640"] ;
33 -> 34 ;
35 [label=<Ateco &le; 0.353<br/>gini = 0.002<br/>samples = 0.8%>, fillcolor="#e78a48"] ;
34 -> 35 ;
36 [label=<Conto &le; 0.707<br/>gini = 0.01<br/>samples = 0.1%>, fillcolor="#eeaa7a"] ;
35 -> 36 ;
37 [label=<Ateco &le; -0.127<br/>gini = 0.011<br/>samples = 0.0%>, fillcolor="#efb082"] ;
36 -> 37 ;
38 [label=<Conto &le; 0.296<br/>gini = 0.015<br/>samples = 0.0%>, fillcolor="#f2bf9a"] ;
37 -> 38 ;
39 [label=<gini = 0.0<br/>samples = 0.0%>, fillcolor="#e58139"] ;
38 -> 39 ;
40 [label=<gini = 0.0<br/>samples = 0.0%>, fillcolor="#e58139"] ;
38 -> 40 ;
41 [label=<ContoStd &le; 0.646<br/>gini = 0.004<br/>samples = 0.0%>, fillcolor="#e89051"] ;
37 -> 41 ;
42 [label=<TIva &le; 0.178<br/>gini = 0.015<br/>samples = 0.0%>, fillcolor="#f2bf9a"] ;
41 -> 42 ;
43 [label=<gini = 0.0<br/>samples = 0.0%>, fillcolor="#e58139"] ;
42 -> 43 ;
44 [label=<gini = 0.0<br/>samples = 0.0%>, fillcolor="#e58139"] ;
42 -> 44 ;
45 [label=<gini = 0.0<br/>samples = 0.0%>, fillcolor="#e58139"] ;
41 -> 45 ;
46 [label=<Ateco &le; -0.811<br/>gini = 0.001<br/>samples = 0.1%>, fillcolor="#e6843e"] ;
36 -> 46 ;
47 [label=<ContoStd &le; 0.783<br/>gini = 0.012<br/>samples = 0.0%>, fillcolor="#f0b58b"] ;
46 -> 47 ;
48 [label=<gini = 0.0<br/>samples = 0.0%>, fillcolor="#e58139"] ;
47 -> 48 ;
49 [label=<gini = 0.0<br/>samples = 0.0%>, fillcolor="#e58139"] ;
47 -> 49 ;
50 [label=<gini = 0.0<br/>samples = 0.1%>, fillcolor="#e58139"] ;
46 -> 50 ;
51 [label=<ContoStd &le; 0.707<br/>gini = 0.001<br/>samples = 0.7%>, fillcolor="#e6853f"] ;
35 -> 51 ;
52 [label=<gini = 0.0<br/>samples = 0.5%>, fillcolor="#e58139"] ;
51 -> 52 ;
53 [label=<ContoStd &le; 0.707<br/>gini = 0.003<br/>samples = 0.2%>, fillcolor="#e88e4d"] ;
51 -> 53 ;
54 [label=<Tdoc_TD04 &le; 0.5<br/>gini = 0.017<br/>samples = 0.0%>, fillcolor="#f3c6a6"] ;
53 -> 54 ;
55 [label=<Ateco &le; 1.436<br/>gini = 0.014<br/>samples = 0.0%>, fillcolor="#f1bd97"] ;
54 -> 55 ;
56 [label=<gini = 0.0<br/>samples = 0.0%>, fillcolor="#e58139"] ;
55 -> 56 ;
57 [label=<gini = 0.0<br/>samples = 0.0%>, fillcolor="#e58139"] ;
55 -> 57 ;
58 [label=<gini = 0.0<br/>samples = 0.0%>, fillcolor="#e58139"] ;
54 -> 58 ;
59 [label=<gini = 0.0<br/>samples = 0.2%>, fillcolor="#e58139"] ;
53 -> 59 ;
60 [label=<gini = 0.0<br/>samples = 0.8%>, fillcolor="#e58139"] ;
34 -> 60 ;
61 [label=<ContoStd &le; 0.707<br/>gini = 0.007<br/>samples = 0.1%>, fillcolor="#eb9d65"] ;
33 -> 61 ;
62 [label=<gini = 0.0<br/>samples = 0.1%>, fillcolor="#e58139"] ;
61 -> 62 ;
63 [label=<Conto &le; 0.708<br/>gini = 0.016<br/>samples = 0.0%>, fillcolor="#f3c5a4"] ;
61 -> 63 ;
64 [label=<gini = 0.0<br/>samples = 0.0%>, fillcolor="#e58139"] ;
63 -> 64 ;
65 [label=<gini = 0.0<br/>samples = 0.0%>, fillcolor="#e58139"] ;
63 -> 65 ;
66 [label=<Tdoc_TD24 &le; 0.5<br/>gini = 0.016<br/>samples = 0.0%>, fillcolor="#f3c3a1"] ;
32 -> 66 ;
67 [label=<Tdoc_TD04 &le; 0.5<br/>gini = 0.002<br/>samples = 0.0%>, fillcolor="#e78a47"] ;
66 -> 67 ;
68 [label=<gini = 0.0<br/>samples = 0.0%>, fillcolor="#e58139"] ;
67 -> 68 ;
69 [label=<Importo &le; -0.042<br/>gini = 0.017<br/>samples = 0.0%>, fillcolor="#f3c7a6"] ;
67 -> 69 ;
70 [label=<gini = 0.0<br/>samples = 0.0%>, fillcolor="#e58139"] ;
69 -> 70 ;
71 [label=<gini = 0.0<br/>samples = 0.0%>, fillcolor="#e58139"] ;
69 -> 71 ;
72 [label=<Importo &le; -0.045<br/>gini = 0.003<br/>samples = 0.0%>, fillcolor="#e88f4f"] ;
66 -> 72 ;
73 [label=<Importo &le; -0.045<br/>gini = 0.007<br/>samples = 0.0%>, fillcolor="#eb9f69"] ;
72 -> 73 ;
74 [label=<gini = 0.0<br/>samples = 0.0%>, fillcolor="#e58139"] ;
73 -> 74 ;
75 [label=<gini = 0.0<br/>samples = 0.0%>, fillcolor="#e58139"] ;
73 -> 75 ;
76 [label=<gini = 0.0<br/>samples = 0.0%>, fillcolor="#e58139"] ;
72 -> 76 ;
77 [label=<Ateco &le; -2.461<br/>gini = 0.0<br/>samples = 5.3%>, fillcolor="#e5823a"] ;
31 -> 77 ;
78 [label=<Caus &le; 7.653<br/>gini = 0.011<br/>samples = 0.0%>, fillcolor="#efb083"] ;
77 -> 78 ;
79 [label=<ContoStd &le; 1.822<br/>gini = 0.005<br/>samples = 0.0%>, fillcolor="#e99558"] ;
78 -> 79 ;
80 [label=<gini = 0.0<br/>samples = 0.0%>, fillcolor="#e58139"] ;
79 -> 80 ;
81 [label=<gini = 0.0<br/>samples = 0.0%>, fillcolor="#e58139"] ;
79 -> 81 ;
82 [label=<gini = 0.0<br/>samples = 0.0%>, fillcolor="#e58139"] ;
78 -> 82 ;
83 [label=<ContoStd &le; 1.824<br/>gini = 0.0<br/>samples = 5.3%>, fillcolor="#e5823a"] ;
77 -> 83 ;
84 [label=<ContoStd &le; 0.707<br/>gini = 0.0<br/>samples = 5.2%>, fillcolor="#e5823a"] ;
83 -> 84 ;
85 [label=<Ateco &le; -1.869<br/>gini = 0.0<br/>samples = 4.5%>, fillcolor="#e58139"] ;
84 -> 85 ;
86 [label=<ContoStd &le; 0.574<br/>gini = 0.001<br/>samples = 0.0%>, fillcolor="#e68641"] ;
85 -> 86 ;
87 [label=<gini = 0.0<br/>samples = 0.0%>, fillcolor="#e58139"] ;
86 -> 87 ;
88 [label=<gini = 0.0<br/>samples = 0.0%>, fillcolor="#e58139"] ;
86 -> 88 ;
89 [label=<Ateco &le; -0.271<br/>gini = 0.0<br/>samples = 4.4%>, fillcolor="#e58139"] ;
85 -> 89 ;
90 [label=<ContoStd &le; 0.707<br/>gini = 0.001<br/>samples = 0.1%>, fillcolor="#e5833c"] ;
89 -> 90 ;
91 [label=<gini = 0.0<br/>samples = 0.1%>, fillcolor="#e58139"] ;
90 -> 91 ;
92 [label=<Ateco &le; -0.484<br/>gini = 0.003<br/>samples = 0.0%>, fillcolor="#e78c4a"] ;
90 -> 92 ;
93 [label=<gini = 0.0<br/>samples = 0.0%>, fillcolor="#e58139"] ;
92 -> 93 ;
94 [label=<Conto &le; 0.707<br/>gini = 0.007<br/>samples = 0.0%>, fillcolor="#eb9c64"] ;
92 -> 94 ;
95 [label=<Importo &le; -0.046<br/>gini = 0.015<br/>samples = 0.0%>, fillcolor="#f2bf9a"] ;
94 -> 95 ;
96 [label=<gini = 0.0<br/>samples = 0.0%>, fillcolor="#e58139"] ;
95 -> 96 ;
97 [label=<gini = 0.0<br/>samples = 0.0%>, fillcolor="#e58139"] ;
95 -> 97 ;
98 [label=<gini = 0.0<br/>samples = 0.0%>, fillcolor="#e58139"] ;
94 -> 98 ;
99 [label=<Conto &le; -3.639<br/>gini = 0.0<br/>samples = 4.3%>, fillcolor="#e58139"] ;
89 -> 99 ;
100 [label=<Importo &le; -0.046<br/>gini = 0.0<br/>samples = 0.1%>, fillcolor="#e5833c"] ;
99 -> 100 ;
101 [label=<Ateco &le; 1.296<br/>gini = 0.007<br/>samples = 0.0%>, fillcolor="#eb9c64"] ;
100 -> 101 ;
102 [label=<gini = 0.0<br/>samples = 0.0%>, fillcolor="#e58139"] ;
101 -> 102 ;
103 [label=<gini = 0.0<br/>samples = 0.0%>, fillcolor="#e58139"] ;
101 -> 103 ;
104 [label=<gini = 0.0<br/>samples = 0.1%>, fillcolor="#e58139"] ;
100 -> 104 ;
105 [label=<Ateco &le; 2.54<br/>gini = 0.0<br/>samples = 4.2%>, fillcolor="#e58139"] ;
99 -> 105 ;
106 [label=<Importo &le; -0.046<br/>gini = 0.0<br/>samples = 4.0%>, fillcolor="#e58139"] ;
105 -> 106 ;
107 [label=<gini = 0.0<br/>samples = 2.9%>, fillcolor="#e58139"] ;
106 -> 107 ;
108 [label=<Importo &le; -0.046<br/>gini = 0.0<br/>samples = 1.1%>, fillcolor="#e58139"] ;
106 -> 108 ;
109 [label=<gini = 0.0<br/>samples = 0.0%>, fillcolor="#e58139"] ;
108 -> 109 ;
110 [label=<gini = 0.0<br/>samples = 1.1%>, fillcolor="#e58139"] ;
108 -> 110 ;
111 [label=<TIva &le; 0.08<br/>gini = 0.0<br/>samples = 0.2%>, fillcolor="#e5823b"] ;
105 -> 111 ;
112 [label=<gini = 0.017<br/>samples = 0.0%>, fillcolor="#f3c7a6"] ;
111 -> 112 ;
113 [label=<gini = 0.0<br/>samples = 0.2%>, fillcolor="#e58139"] ;
111 -> 113 ;
114 [label=<Conto &le; 0.707<br/>gini = 0.0<br/>samples = 0.7%>, fillcolor="#e5833c"] ;
84 -> 114 ;
115 [label=<Ateco &le; -0.004<br/>gini = 0.005<br/>samples = 0.0%>, fillcolor="#e9975b"] ;
114 -> 115 ;
116 [label=<gini = 0.0<br/>samples = 0.0%>, fillcolor="#e58139"] ;
115 -> 116 ;
117 [label=<gini = 0.0<br/>samples = 0.0%>, fillcolor="#e58139"] ;
115 -> 117 ;
118 [label=<CoDitta &le; -0.414<br/>gini = 0.0<br/>samples = 0.7%>, fillcolor="#e5823b"] ;
114 -> 118 ;
119 [label=<gini = 0.0<br/>samples = 0.4%>, fillcolor="#e58139"] ;
118 -> 119 ;
120 [label=<CoDitta &le; -0.412<br/>gini = 0.001<br/>samples = 0.3%>, fillcolor="#e6843d"] ;
118 -> 120 ;
121 [label=<Conto &le; 0.707<br/>gini = 0.017<br/>samples = 0.0%>, fillcolor="#f3c7a6"] ;
120 -> 121 ;
122 [label=<gini = 0.0<br/>samples = 0.0%>, fillcolor="#e58139"] ;
121 -> 122 ;
123 [label=<gini = 0.0<br/>samples = 0.0%>, fillcolor="#e58139"] ;
121 -> 123 ;
124 [label=<Importo &le; -0.045<br/>gini = 0.0<br/>samples = 0.3%>, fillcolor="#e5833c"] ;
120 -> 124 ;
125 [label=<gini = 0.0<br/>samples = 0.2%>, fillcolor="#e58139"] ;
124 -> 125 ;
126 [label=<Importo &le; -0.045<br/>gini = 0.003<br/>samples = 0.0%>, fillcolor="#e88e4e"] ;
124 -> 126 ;
127 [label=<CoDitta &le; -0.393<br/>gini = 0.012<br/>samples = 0.0%>, fillcolor="#f0b58b"] ;
126 -> 127 ;
128 [label=<gini = 0.0<br/>samples = 0.0%>, fillcolor="#e58139"] ;
127 -> 128 ;
129 [label=<gini = 0.0<br/>samples = 0.0%>, fillcolor="#e58139"] ;
127 -> 129 ;
130 [label=<Ateco &le; 1.401<br/>gini = 0.002<br/>samples = 0.0%>, fillcolor="#e78945"] ;
126 -> 130 ;
131 [label=<gini = 0.0<br/>samples = 0.0%>, fillcolor="#e58139"] ;
130 -> 131 ;
132 [label=<Ateco &le; 1.571<br/>gini = 0.008<br/>samples = 0.0%>, fillcolor="#eca36f"] ;
130 -> 132 ;
133 [label=<gini = 0.0<br/>samples = 0.0%>, fillcolor="#e58139"] ;
132 -> 133 ;
134 [label=<gini = 0.0<br/>samples = 0.0%>, fillcolor="#e58139"] ;
132 -> 134 ;
135 [label=<Ateco &le; -0.265<br/>gini = 0.004<br/>samples = 0.1%>, fillcolor="#e99254"] ;
83 -> 135 ;
136 [label=<CoDitta &le; -0.387<br/>gini = 0.016<br/>samples = 0.0%>, fillcolor="#f3c5a3"] ;
135 -> 136 ;
137 [label=<gini = 0.0<br/>samples = 0.0%>, fillcolor="#e58139"] ;
136 -> 137 ;
138 [label=<gini = 0.0<br/>samples = 0.0%>, fillcolor="#e58139"] ;
136 -> 138 ;
139 [label=<gini = 0.0<br/>samples = 0.1%>, fillcolor="#e58139"] ;
135 -> 139 ;
140 [label=<gini = 0.0<br/>samples = 0.0%>, fillcolor="#e58139"] ;
30 -> 140 ;
141 [label=<CoDitta &le; -0.385<br/>gini = 0.007<br/>samples = 0.1%>, fillcolor="#eba069"] ;
29 -> 141 ;
142 [label=<gini = 0.0<br/>samples = 0.1%>, fillcolor="#e58139"] ;
141 -> 142 ;
143 [label=<CoDitta &le; -0.38<br/>gini = 0.017<br/>samples = 0.0%>, fillcolor="#f3c6a6"] ;
141 -> 143 ;
144 [label=<Conto &le; 0.919<br/>gini = 0.006<br/>samples = 0.0%>, fillcolor="#ea985d"] ;
143 -> 144 ;
145 [label=<gini = 0.003<br/>samples = 0.0%>, fillcolor="#e88e4d"] ;
144 -> 145 ;
146 [label=<gini = 0.0<br/>samples = 0.0%>, fillcolor="#e58139"] ;
144 -> 146 ;
147 [label=<gini = 0.0<br/>samples = 0.0%>, fillcolor="#e58139"] ;
143 -> 147 ;
148 [label=<CoDitta &le; -0.334<br/>gini = 0.003<br/>samples = 3.8%>, fillcolor="#e78c4a"] ;
22 -> 148 ;
149 [label=<Conto &le; 0.014<br/>gini = 0.017<br/>samples = 0.1%>, fillcolor="#f3c6a6"] ;
148 -> 149 ;
150 [label=<Importo &le; -0.042<br/>gini = 0.014<br/>samples = 0.0%>, fillcolor="#f1bb94"] ;
149 -> 150 ;
151 [label=<Importo &le; -0.044<br/>gini = 0.013<br/>samples = 0.0%>, fillcolor="#f0b78e"] ;
150 -> 151 ;
152 [label=<Importo &le; -0.045<br/>gini = 0.014<br/>samples = 0.0%>, fillcolor="#f1ba92"] ;
151 -> 152 ;
153 [label=<Importo &le; -0.045<br/>gini = 0.013<br/>samples = 0.0%>, fillcolor="#f0b88f"] ;
152 -> 153 ;
154 [label=<Importo &le; -0.045<br/>gini = 0.014<br/>samples = 0.0%>, fillcolor="#f1ba93"] ;
153 -> 154 ;
155 [label=<Importo &le; -0.045<br/>gini = 0.013<br/>samples = 0.0%>, fillcolor="#f0b68d"] ;
154 -> 155 ;
156 [label=<Importo &le; -0.045<br/>gini = 0.013<br/>samples = 0.0%>, fillcolor="#f0b990"] ;
155 -> 156 ;
157 [label=<TIva &le; -0.809<br/>gini = 0.013<br/>samples = 0.0%>, fillcolor="#f0b68d"] ;
156 -> 157 ;
158 [label=<Importo &le; -0.046<br/>gini = 0.014<br/>samples = 0.0%>, fillcolor="#f1ba93"] ;
157 -> 158 ;
159 [label=<Importo &le; -0.046<br/>gini = 0.015<br/>samples = 0.0%>, fillcolor="#f2bf9a"] ;
158 -> 159 ;
160 [label=<Importo &le; -0.046<br/>gini = 0.014<br/>samples = 0.0%>, fillcolor="#f1bb95"] ;
159 -> 160 ;
161 [label=<Importo &le; -0.046<br/>gini = 0.015<br/>samples = 0.0%>, fillcolor="#f2bf9a"] ;
160 -> 161 ;
162 [label=<gini = 0.011<br/>samples = 0.0%>, fillcolor="#eead7f"] ;
161 -> 162 ;
163 [label=<Importo &le; -0.046<br/>gini = 0.016<br/>samples = 0.0%>, fillcolor="#f3c3a0"] ;
161 -> 163 ;
164 [label=<gini = 0.0<br/>samples = 0.0%>, fillcolor="#e58139"] ;
163 -> 164 ;
165 [label=<gini = 0.015<br/>samples = 0.0%>, fillcolor="#f2bf9a"] ;
163 -> 165 ;
166 [label=<gini = 0.0<br/>samples = 0.0%>, fillcolor="#e58139"] ;
160 -> 166 ;
167 [label=<gini = 0.0<br/>samples = 0.0%>, fillcolor="#e58139"] ;
159 -> 167 ;
168 [label=<gini = 0.0<br/>samples = 0.0%>, fillcolor="#e58139"] ;
158 -> 168 ;
169 [label=<gini = 0.0<br/>samples = 0.0%>, fillcolor="#e58139"] ;
157 -> 169 ;
170 [label=<TIva &le; -0.809<br/>gini = 0.017<br/>samples = 0.0%>, fillcolor="#f3c7a6"] ;
156 -> 170 ;
171 [label=<gini = 0.0<br/>samples = 0.0%>, fillcolor="#e58139"] ;
170 -> 171 ;
172 [label=<gini = 0.0<br/>samples = 0.0%>, fillcolor="#e58139"] ;
170 -> 172 ;
173 [label=<gini = 0.0<br/>samples = 0.0%>, fillcolor="#e58139"] ;
155 -> 173 ;
174 [label=<gini = 0.016<br/>samples = 0.0%>, fillcolor="#f3c5a4"] ;
154 -> 174 ;
175 [label=<gini = 0.0<br/>samples = 0.0%>, fillcolor="#e58139"] ;
153 -> 175 ;
176 [label=<gini = 0.0<br/>samples = 0.0%>, fillcolor="#e58139"] ;
152 -> 176 ;
177 [label=<Importo &le; -0.044<br/>gini = 0.008<br/>samples = 0.0%>, fillcolor="#eca36f"] ;
151 -> 177 ;
178 [label=<gini = 0.0<br/>samples = 0.0%>, fillcolor="#e58139"] ;
177 -> 178 ;
179 [label=<Importo &le; -0.043<br/>gini = 0.015<br/>samples = 0.0%>, fillcolor="#f2bf9a"] ;
177 -> 179 ;
180 [label=<gini = 0.017<br/>samples = 0.0%>, fillcolor="#f3c7a6"] ;
179 -> 180 ;
181 [label=<gini = 0.0<br/>samples = 0.0%>, fillcolor="#e58139"] ;
179 -> 181 ;
182 [label=<gini = 0.0<br/>samples = 0.0%>, fillcolor="#e58139"] ;
150 -> 182 ;
183 [label=<ContoStd &le; 0.707<br/>gini = 0.015<br/>samples = 0.1%>, fillcolor="#f2c09b"] ;
149 -> 183 ;
184 [label=<Importo &le; -0.042<br/>gini = 0.014<br/>samples = 0.1%>, fillcolor="#f1bd98"] ;
183 -> 184 ;
185 [label=<Importo &le; -0.044<br/>gini = 0.016<br/>samples = 0.1%>, fillcolor="#f2c29f"] ;
184 -> 185 ;
186 [label=<TIva &le; 0.08<br/>gini = 0.014<br/>samples = 0.1%>, fillcolor="#f1bd98"] ;
185 -> 186 ;
187 [label=<Importo &le; -0.046<br/>gini = 0.015<br/>samples = 0.1%>, fillcolor="#f2bf9a"] ;
186 -> 187 ;
188 [label=<Importo &le; -0.046<br/>gini = 0.017<br/>samples = 0.0%>, fillcolor="#f3c6a6"] ;
187 -> 188 ;
189 [label=<gini = 0.0<br/>samples = 0.0%>, fillcolor="#e58139"] ;
188 -> 189 ;
190 [label=<Importo &le; -0.046<br/>gini = 0.016<br/>samples = 0.0%>, fillcolor="#f3c5a3"] ;
188 -> 190 ;
191 [label=<gini = 0.0<br/>samples = 0.0%>, fillcolor="#e58139"] ;
190 -> 191 ;
192 [label=<gini = 0.017<br/>samples = 0.0%>, fillcolor="#f3c6a5"] ;
190 -> 192 ;
193 [label=<Importo &le; -0.045<br/>gini = 0.014<br/>samples = 0.1%>, fillcolor="#f1bb93"] ;
187 -> 193 ;
194 [label=<Importo &le; -0.045<br/>gini = 0.014<br/>samples = 0.1%>, fillcolor="#f1bc96"] ;
193 -> 194 ;
195 [label=<Importo &le; -0.046<br/>gini = 0.014<br/>samples = 0.1%>, fillcolor="#f1bb94"] ;
194 -> 195 ;
196 [label=<Importo &le; -0.046<br/>gini = 0.014<br/>samples = 0.0%>, fillcolor="#f1bd98"] ;
195 -> 196 ;
197 [label=<Importo &le; -0.046<br/>gini = 0.013<br/>samples = 0.0%>, fillcolor="#f1b991"] ;
196 -> 197 ;
198 [label=<gini = 0.0<br/>samples = 0.0%>, fillcolor="#e58139"] ;
197 -> 198 ;
199 [label=<Importo &le; -0.046<br/>gini = 0.014<br/>samples = 0.0%>, fillcolor="#f1ba93"] ;
197 -> 199 ;
200 [label=<gini = 0.014<br/>samples = 0.0%>, fillcolor="#f1bb94"] ;
199 -> 200 ;
201 [label=<gini = 0.0<br/>samples = 0.0%>, fillcolor="#e58139"] ;
199 -> 201 ;
202 [label=<Importo &le; -0.046<br/>gini = 0.016<br/>samples = 0.0%>, fillcolor="#f3c4a2"] ;
196 -> 202 ;
203 [label=<gini = 0.0<br/>samples = 0.0%>, fillcolor="#e58139"] ;
202 -> 203 ;
204 [label=<gini = 0.017<br/>samples = 0.0%>, fillcolor="#f3c7a6"] ;
202 -> 204 ;
205 [label=<Importo &le; -0.045<br/>gini = 0.011<br/>samples = 0.0%>, fillcolor="#efb083"] ;
195 -> 205 ;
206 [label=<gini = 0.0<br/>samples = 0.0%>, fillcolor="#e58139"] ;
205 -> 206 ;
207 [label=<Importo &le; -0.045<br/>gini = 0.013<br/>samples = 0.0%>, fillcolor="#f0b890"] ;
205 -> 207 ;
208 [label=<gini = 0.017<br/>samples = 0.0%>, fillcolor="#f3c7a6"] ;
207 -> 208 ;
209 [label=<Importo &le; -0.045<br/>gini = 0.012<br/>samples = 0.0%>, fillcolor="#efb185"] ;
207 -> 209 ;
210 [label=<gini = 0.011<br/>samples = 0.0%>, fillcolor="#eead7f"] ;
209 -> 210 ;
211 [label=<gini = 0.012<br/>samples = 0.0%>, fillcolor="#f0b58b"] ;
209 -> 211 ;
212 [label=<gini = 0.0<br/>samples = 0.0%>, fillcolor="#e58139"] ;
194 -> 212 ;
213 [label=<Importo &le; -0.044<br/>gini = 0.009<br/>samples = 0.0%>, fillcolor="#eda876"] ;
193 -> 213 ;
214 [label=<gini = 0.0<br/>samples = 0.0%>, fillcolor="#e58139"] ;
213 -> 214 ;
215 [label=<Importo &le; -0.044<br/>gini = 0.017<br/>samples = 0.0%>, fillcolor="#f3c7a6"] ;
213 -> 215 ;
216 [label=<gini = 0.0<br/>samples = 0.0%>, fillcolor="#e58139"] ;
215 -> 216 ;
217 [label=<gini = 0.0<br/>samples = 0.0%>, fillcolor="#e58139"] ;
215 -> 217 ;
218 [label=<gini = 0.0<br/>samples = 0.0%>, fillcolor="#e58139"] ;
186 -> 218 ;
219 [label=<gini = 0.0<br/>samples = 0.0%>, fillcolor="#e58139"] ;
185 -> 219 ;
220 [label=<gini = 0.0<br/>samples = 0.0%>, fillcolor="#e58139"] ;
184 -> 220 ;
221 [label=<gini = 0.0<br/>samples = 0.0%>, fillcolor="#e58139"] ;
183 -> 221 ;
222 [label=<Tdoc_TD02 &le; 0.5<br/>gini = 0.001<br/>samples = 3.7%>, fillcolor="#e68742"] ;
148 -> 222 ;
223 [label=<Conto &le; 0.58<br/>gini = 0.001<br/>samples = 3.6%>, fillcolor="#e68640"] ;
222 -> 223 ;
224 [label=<CoDitta &le; 3.392<br/>gini = 0.0<br/>samples = 2.0%>, fillcolor="#e5813a"] ;
223 -> 224 ;
225 [label=<Conto &le; -3.395<br/>gini = 0.0<br/>samples = 2.0%>, fillcolor="#e58139"] ;
224 -> 225 ;
226 [label=<ContoStd &le; -3.475<br/>gini = 0.001<br/>samples = 0.1%>, fillcolor="#e68540"] ;
225 -> 226 ;
227 [label=<CoDitta &le; -0.279<br/>gini = 0.001<br/>samples = 0.1%>, fillcolor="#e5833d"] ;
226 -> 227 ;
228 [label=<CoDitta &le; -0.29<br/>gini = 0.002<br/>samples = 0.0%>, fillcolor="#e78945"] ;
227 -> 228 ;
229 [label=<gini = 0.0<br/>samples = 0.0%>, fillcolor="#e58139"] ;
228 -> 229 ;
230 [label=<Conto &le; -3.639<br/>gini = 0.012<br/>samples = 0.0%>, fillcolor="#f0b58b"] ;
228 -> 230 ;
231 [label=<gini = 0.0<br/>samples = 0.0%>, fillcolor="#e58139"] ;
230 -> 231 ;
232 [label=<gini = 0.0<br/>samples = 0.0%>, fillcolor="#e58139"] ;
230 -> 232 ;
233 [label=<gini = 0.0<br/>samples = 0.1%>, fillcolor="#e58139"] ;
227 -> 233 ;
234 [label=<Importo &le; -0.045<br/>gini = 0.007<br/>samples = 0.0%>, fillcolor="#eb9c64"] ;
226 -> 234 ;
235 [label=<Caus &le; 0.086<br/>gini = 0.017<br/>samples = 0.0%>, fillcolor="#f3c7a6"] ;
234 -> 235 ;
236 [label=<gini = 0.0<br/>samples = 0.0%>, fillcolor="#e58139"] ;
235 -> 236 ;
237 [label=<gini = 0.0<br/>samples = 0.0%>, fillcolor="#e58139"] ;
235 -> 237 ;
238 [label=<gini = 0.0<br/>samples = 0.0%>, fillcolor="#e58139"] ;
234 -> 238 ;
239 [label=<gini = 0.0<br/>samples = 1.9%>, fillcolor="#e58139"] ;
225 -> 239 ;
240 [label=<gini = 0.0<br/>samples = 0.0%>, fillcolor="#e58139"] ;
224 -> 240 ;
241 [label=<Conto &le; 0.581<br/>gini = 0.002<br/>samples = 1.5%>, fillcolor="#e78b48"] ;
223 -> 241 ;
242 [label=<Ateco &le; 0.006<br/>gini = 0.01<br/>samples = 0.2%>, fillcolor="#eda978"] ;
241 -> 242 ;
243 [label=<Ateco &le; 0.005<br/>gini = 0.015<br/>samples = 0.0%>, fillcolor="#f2be99"] ;
242 -> 243 ;
244 [label=<gini = 0.0<br/>samples = 0.0%>, fillcolor="#e58139"] ;
243 -> 244 ;
245 [label=<gini = 0.0<br/>samples = 0.0%>, fillcolor="#e58139"] ;
243 -> 245 ;
246 [label=<Importo &le; -0.038<br/>gini = 0.001<br/>samples = 0.1%>, fillcolor="#e6853f"] ;
242 -> 246 ;
247 [label=<Ateco &le; 0.025<br/>gini = 0.0<br/>samples = 0.1%>, fillcolor="#e5833c"] ;
246 -> 247 ;
248 [label=<Importo &le; -0.046<br/>gini = 0.006<br/>samples = 0.0%>, fillcolor="#ea9a60"] ;
247 -> 248 ;
249 [label=<gini = 0.0<br/>samples = 0.0%>, fillcolor="#e58139"] ;
248 -> 249 ;
250 [label=<gini = 0.0<br/>samples = 0.0%>, fillcolor="#e58139"] ;
248 -> 250 ;
251 [label=<gini = 0.0<br/>samples = 0.1%>, fillcolor="#e58139"] ;
247 -> 251 ;
252 [label=<gini = 0.0<br/>samples = 0.0%>, fillcolor="#e58139"] ;
246 -> 252 ;
253 [label=<CoDitta &le; -0.315<br/>gini = 0.001<br/>samples = 1.3%>, fillcolor="#e68640"] ;
241 -> 253 ;
254 [label=<CoDitta &le; -0.316<br/>gini = 0.012<br/>samples = 0.1%>, fillcolor="#efb185"] ;
253 -> 254 ;
255 [label=<gini = 0.0<br/>samples = 0.1%>, fillcolor="#e58139"] ;
254 -> 255 ;
256 [label=<gini = 0.0<br/>samples = 0.0%>, fillcolor="#e58139"] ;
254 -> 256 ;
257 [label=<Ateco &le; 2.112<br/>gini = 0.0<br/>samples = 1.3%>, fillcolor="#e5823b"] ;
253 -> 257 ;
258 [label=<Ateco &le; -0.265<br/>gini = 0.0<br/>samples = 1.2%>, fillcolor="#e5823a"] ;
257 -> 258 ;
259 [label=<CoDitta &le; 1.89<br/>gini = 0.001<br/>samples = 0.1%>, fillcolor="#e68641"] ;
258 -> 259 ;
260 [label=<Importo &le; -0.046<br/>gini = 0.001<br/>samples = 0.1%>, fillcolor="#e6843d"] ;
259 -> 260 ;
261 [label=<CoDitta &le; -0.108<br/>gini = 0.004<br/>samples = 0.0%>, fillcolor="#e99356"] ;
260 -> 261 ;
262 [label=<ContoStd &le; 0.707<br/>gini = 0.015<br/>samples = 0.0%>, fillcolor="#f2bf9a"] ;
261 -> 262 ;
263 [label=<gini = 0.0<br/>samples = 0.0%>, fillcolor="#e58139"] ;
262 -> 263 ;
264 [label=<gini = 0.0<br/>samples = 0.0%>, fillcolor="#e58139"] ;
262 -> 264 ;
265 [label=<gini = 0.0<br/>samples = 0.0%>, fillcolor="#e58139"] ;
261 -> 265 ;
266 [label=<gini = 0.0<br/>samples = 0.1%>, fillcolor="#e58139"] ;
260 -> 266 ;
267 [label=<Conto &le; 0.707<br/>gini = 0.009<br/>samples = 0.0%>, fillcolor="#eda876"] ;
259 -> 267 ;
268 [label=<gini = 0.0<br/>samples = 0.0%>, fillcolor="#e58139"] ;
267 -> 268 ;
269 [label=<gini = 0.0<br/>samples = 0.0%>, fillcolor="#e58139"] ;
267 -> 269 ;
270 [label=<Ateco &le; 1.682<br/>gini = 0.0<br/>samples = 1.1%>, fillcolor="#e58139"] ;
258 -> 270 ;
271 [label=<gini = 0.0<br/>samples = 1.0%>, fillcolor="#e58139"] ;
270 -> 271 ;
272 [label=<Ateco &le; 1.787<br/>gini = 0.002<br/>samples = 0.0%>, fillcolor="#e68844"] ;
270 -> 272 ;
273 [label=<gini = 0.0<br/>samples = 0.0%>, fillcolor="#e58139"] ;
272 -> 273 ;
274 [label=<gini = 0.0<br/>samples = 0.0%>, fillcolor="#e58139"] ;
272 -> 274 ;
275 [label=<Ateco &le; 2.489<br/>gini = 0.003<br/>samples = 0.1%>, fillcolor="#e78c4a"] ;
257 -> 275 ;
276 [label=<Ateco &le; 2.487<br/>gini = 0.004<br/>samples = 0.1%>, fillcolor="#e99356"] ;
275 -> 276 ;
277 [label=<Conto &le; 0.707<br/>gini = 0.002<br/>samples = 0.1%>, fillcolor="#e78b49"] ;
276 -> 277 ;
278 [label=<Conto &le; 0.707<br/>gini = 0.006<br/>samples = 0.0%>, fillcolor="#ea995f"] ;
277 -> 278 ;
279 [label=<gini = 0.0<br/>samples = 0.0%>, fillcolor="#e58139"] ;
278 -> 279 ;
280 [label=<gini = 0.015<br/>samples = 0.0%>, fillcolor="#f2bf9a"] ;
278 -> 280 ;
281 [label=<gini = 0.0<br/>samples = 0.0%>, fillcolor="#e58139"] ;
277 -> 281 ;
282 [label=<Conto &le; 0.707<br/>gini = 0.017<br/>samples = 0.0%>, fillcolor="#f3c7a6"] ;
276 -> 282 ;
283 [label=<gini = 0.0<br/>samples = 0.0%>, fillcolor="#e58139"] ;
282 -> 283 ;
284 [label=<gini = 0.0<br/>samples = 0.0%>, fillcolor="#e58139"] ;
282 -> 284 ;
285 [label=<gini = 0.0<br/>samples = 0.0%>, fillcolor="#e58139"] ;
275 -> 285 ;
286 [label=<Ateco &le; 1.892<br/>gini = 0.01<br/>samples = 0.1%>, fillcolor="#eda978"] ;
222 -> 286 ;
287 [label=<Ateco &le; 0.034<br/>gini = 0.002<br/>samples = 0.1%>, fillcolor="#e78946"] ;
286 -> 287 ;
288 [label=<CoDitta &le; -0.146<br/>gini = 0.012<br/>samples = 0.0%>, fillcolor="#efb185"] ;
287 -> 288 ;
289 [label=<gini = 0.0<br/>samples = 0.0%>, fillcolor="#e58139"] ;
288 -> 289 ;
290 [label=<gini = 0.0<br/>samples = 0.0%>, fillcolor="#e58139"] ;
288 -> 290 ;
291 [label=<Ateco &le; 1.193<br/>gini = 0.001<br/>samples = 0.1%>, fillcolor="#e6843e"] ;
287 -> 291 ;
292 [label=<gini = 0.0<br/>samples = 0.1%>, fillcolor="#e58139"] ;
291 -> 292 ;
293 [label=<Conto &le; -1.466<br/>gini = 0.012<br/>samples = 0.0%>, fillcolor="#f0b58b"] ;
291 -> 293 ;
294 [label=<gini = 0.0<br/>samples = 0.0%>, fillcolor="#e58139"] ;
293 -> 294 ;
295 [label=<gini = 0.0<br/>samples = 0.0%>, fillcolor="#e58139"] ;
293 -> 295 ;
296 [label=<CoDitta &le; 0.176<br/>gini = 0.006<br/>samples = 0.0%>, fillcolor="#ea9b62"] ;
286 -> 296 ;
297 [label=<gini = 0.0<br/>samples = 0.0%>, fillcolor="#e58139"] ;
296 -> 297 ;
298 [label=<gini = 0.0<br/>samples = 0.0%>, fillcolor="#e58139"] ;
296 -> 298 ;
299 [label=<Tdoc_TD24 &le; 0.5<br/>gini = 0.017<br/>samples = 0.0%>, fillcolor="#f4c9aa"] ;
21 -> 299 ;
300 [label=<Tdoc_TD04 &le; 0.5<br/>gini = 0.017<br/>samples = 0.0%>, fillcolor="#f3c6a6"] ;
299 -> 300 ;
301 [label=<Ateco &le; 0.675<br/>gini = 0.017<br/>samples = 0.0%>, fillcolor="#f3c6a6"] ;
300 -> 301 ;
302 [label=<gini = 0.0<br/>samples = 0.0%>, fillcolor="#e58139"] ;
301 -> 302 ;
303 [label=<Conto &le; 0.014<br/>gini = 0.017<br/>samples = 0.0%>, fillcolor="#f3c6a6"] ;
301 -> 303 ;
304 [label=<gini = 0.017<br/>samples = 0.0%>, fillcolor="#f3c6a6"] ;
303 -> 304 ;
305 [label=<gini = 0.017<br/>samples = 0.0%>, fillcolor="#f3c7a6"] ;
303 -> 305 ;
306 [label=<gini = 0.0<br/>samples = 0.0%>, fillcolor="#e58139"] ;
300 -> 306 ;
307 [label=<gini = 0.0<br/>samples = 0.0%>, fillcolor="#e58139"] ;
299 -> 307 ;
308 [label=<CoDitta &le; -0.436<br/>gini = 0.013<br/>samples = 0.0%>, fillcolor="#f0b78e"] ;
20 -> 308 ;
309 [label=<gini = 0.0<br/>samples = 0.0%>, fillcolor="#e58139"] ;
308 -> 309 ;
310 [label=<gini = 0.0<br/>samples = 0.0%>, fillcolor="#e58139"] ;
308 -> 310 ;
311 [label=<CoDitta &le; -0.328<br/>gini = 0.019<br/>samples = 0.0%>, fillcolor="#f6d2b9"] ;
19 -> 311 ;
312 [label=<TIva &le; 0.08<br/>gini = 0.007<br/>samples = 0.0%>, fillcolor="#eb9d65"] ;
311 -> 312 ;
313 [label=<gini = 0.0<br/>samples = 0.0%>, fillcolor="#e58139"] ;
312 -> 313 ;
314 [label=<ContoStd &le; 0.585<br/>gini = 0.003<br/>samples = 0.0%>, fillcolor="#e78c4a"] ;
312 -> 314 ;
315 [label=<gini = 0.0<br/>samples = 0.0%>, fillcolor="#e58139"] ;
314 -> 315 ;
316 [label=<ContoStd &le; 0.646<br/>gini = 0.007<br/>samples = 0.0%>, fillcolor="#eb9f69"] ;
314 -> 316 ;
317 [label=<gini = 0.0<br/>samples = 0.0%>, fillcolor="#e58139"] ;
316 -> 317 ;
318 [label=<gini = 0.0<br/>samples = 0.0%>, fillcolor="#e58139"] ;
316 -> 318 ;
319 [label=<Ateco &le; 2.212<br/>gini = 0.021<br/>samples = 0.0%>, fillcolor="#f7dac5"] ;
311 -> 319 ;
320 [label=<Importo &le; -0.038<br/>gini = 0.015<br/>samples = 0.0%>, fillcolor="#f2bf9b"] ;
319 -> 320 ;
321 [label=<ContoStd &le; 0.014<br/>gini = 0.009<br/>samples = 0.0%>, fillcolor="#eda876"] ;
320 -> 321 ;
322 [label=<gini = 0.0<br/>samples = 0.0%>, fillcolor="#e58139"] ;
321 -> 322 ;
323 [label=<CoDitta &le; 0.399<br/>gini = 0.017<br/>samples = 0.0%>, fillcolor="#f3c7a6"] ;
321 -> 323 ;
324 [label=<gini = 0.0<br/>samples = 0.0%>, fillcolor="#e58139"] ;
323 -> 324 ;
325 [label=<gini = 0.0<br/>samples = 0.0%>, fillcolor="#e58139"] ;
323 -> 325 ;
326 [label=<gini = 0.0<br/>samples = 0.0%>, fillcolor="#e58139"] ;
320 -> 326 ;
327 [label=<gini = 0.0<br/>samples = 0.0%>, fillcolor="#e58139"] ;
319 -> 327 ;
328 [label=<Tdoc_TD24 &le; 0.5<br/>gini = 0.002<br/>samples = 0.0%>, fillcolor="#e68844"] ;
18 -> 328 ;
329 [label=<gini = 0.0<br/>samples = 0.0%>, fillcolor="#e58139"] ;
328 -> 329 ;
330 [label=<gini = 0.0<br/>samples = 0.0%>, fillcolor="#e58139"] ;
328 -> 330 ;
331 [label=<ContoStd &le; 0.296<br/>gini = 0.004<br/>samples = 0.1%>, fillcolor="#e99356"] ;
17 -> 331 ;
332 [label=<gini = 0.0<br/>samples = 0.0%>, fillcolor="#e58139"] ;
331 -> 332 ;
333 [label=<gini = 0.0<br/>samples = 0.0%>, fillcolor="#e58139"] ;
331 -> 333 ;
334 [label=<ContoStd &le; 0.298<br/>gini = 0.016<br/>samples = 0.1%>, fillcolor="#f3c4a2"] ;
16 -> 334 ;
335 [label=<CoDitta &le; -0.094<br/>gini = 0.011<br/>samples = 0.1%>, fillcolor="#efb184"] ;
334 -> 335 ;
336 [label=<Importo &le; -0.045<br/>gini = 0.011<br/>samples = 0.1%>, fillcolor="#eeae80"] ;
335 -> 336 ;
337 [label=<Importo &le; -0.046<br/>gini = 0.015<br/>samples = 0.0%>, fillcolor="#f2bf9a"] ;
336 -> 337 ;
338 [label=<Importo &le; -0.046<br/>gini = 0.01<br/>samples = 0.0%>, fillcolor="#eeaa7a"] ;
337 -> 338 ;
339 [label=<Importo &le; -0.046<br/>gini = 0.012<br/>samples = 0.0%>, fillcolor="#f0b58b"] ;
338 -> 339 ;
340 [label=<Importo &le; -0.046<br/>gini = 0.008<br/>samples = 0.0%>, fillcolor="#eca36f"] ;
339 -> 340 ;
341 [label=<Importo &le; -0.046<br/>gini = 0.015<br/>samples = 0.0%>, fillcolor="#f2bf9a"] ;
340 -> 341 ;
342 [label=<gini = 0.0<br/>samples = 0.0%>, fillcolor="#e58139"] ;
341 -> 342 ;
343 [label=<gini = 0.0<br/>samples = 0.0%>, fillcolor="#e58139"] ;
341 -> 343 ;
344 [label=<gini = 0.0<br/>samples = 0.0%>, fillcolor="#e58139"] ;
340 -> 344 ;
345 [label=<gini = 0.0<br/>samples = 0.0%>, fillcolor="#e58139"] ;
339 -> 345 ;
346 [label=<gini = 0.0<br/>samples = 0.0%>, fillcolor="#e58139"] ;
338 -> 346 ;
347 [label=<Importo &le; -0.046<br/>gini = 0.016<br/>samples = 0.0%>, fillcolor="#f3c5a5"] ;
337 -> 347 ;
348 [label=<gini = 0.0<br/>samples = 0.0%>, fillcolor="#e58139"] ;
347 -> 348 ;
349 [label=<Importo &le; -0.046<br/>gini = 0.016<br/>samples = 0.0%>, fillcolor="#f3c4a2"] ;
347 -> 349 ;
350 [label=<gini = 0.0<br/>samples = 0.0%>, fillcolor="#e58139"] ;
349 -> 350 ;
351 [label=<Importo &le; -0.046<br/>gini = 0.016<br/>samples = 0.0%>, fillcolor="#f3c5a4"] ;
349 -> 351 ;
352 [label=<gini = 0.015<br/>samples = 0.0%>, fillcolor="#f2bf9a"] ;
351 -> 352 ;
353 [label=<Importo &le; -0.046<br/>gini = 0.015<br/>samples = 0.0%>, fillcolor="#f2c19e"] ;
351 -> 353 ;
354 [label=<gini = 0.0<br/>samples = 0.0%>, fillcolor="#e58139"] ;
353 -> 354 ;
355 [label=<Importo &le; -0.046<br/>gini = 0.016<br/>samples = 0.0%>, fillcolor="#f3c6a5"] ;
353 -> 355 ;
356 [label=<gini = 0.0<br/>samples = 0.0%>, fillcolor="#e58139"] ;
355 -> 356 ;
357 [label=<Importo &le; -0.046<br/>gini = 0.016<br/>samples = 0.0%>, fillcolor="#f2c29f"] ;
355 -> 357 ;
358 [label=<gini = 0.0<br/>samples = 0.0%>, fillcolor="#e58139"] ;
357 -> 358 ;
359 [label=<Importo &le; -0.046<br/>gini = 0.017<br/>samples = 0.0%>, fillcolor="#f3c7a6"] ;
357 -> 359 ;
360 [label=<gini = 0.0<br/>samples = 0.0%>, fillcolor="#e58139"] ;
359 -> 360 ;
361 [label=<Importo &le; -0.046<br/>gini = 0.016<br/>samples = 0.0%>, fillcolor="#f3c4a2"] ;
359 -> 361 ;
362 [label=<gini = 0.0<br/>samples = 0.0%>, fillcolor="#e58139"] ;
361 -> 362 ;
363 [label=<Importo &le; -0.046<br/>gini = 0.017<br/>samples = 0.0%>, fillcolor="#f3c7a6"] ;
361 -> 363 ;
364 [label=<gini = 0.0<br/>samples = 0.0%>, fillcolor="#e58139"] ;
363 -> 364 ;
365 [label=<Importo &le; -0.045<br/>gini = 0.015<br/>samples = 0.0%>, fillcolor="#f2bf9a"] ;
363 -> 365 ;
366 [label=<gini = 0.0<br/>samples = 0.0%>, fillcolor="#e58139"] ;
365 -> 366 ;
367 [label=<gini = 0.017<br/>samples = 0.0%>, fillcolor="#f3c7a6"] ;
365 -> 367 ;
368 [label=<Importo &le; -0.038<br/>gini = 0.006<br/>samples = 0.0%>, fillcolor="#eb9c63"] ;
336 -> 368 ;
369 [label=<Importo &le; -0.041<br/>gini = 0.005<br/>samples = 0.0%>, fillcolor="#e9965a"] ;
368 -> 369 ;
370 [label=<Importo &le; -0.044<br/>gini = 0.002<br/>samples = 0.0%>, fillcolor="#e78b48"] ;
369 -> 370 ;
371 [label=<Importo &le; -0.044<br/>gini = 0.006<br/>samples = 0.0%>, fillcolor="#ea985d"] ;
370 -> 371 ;
372 [label=<gini = 0.0<br/>samples = 0.0%>, fillcolor="#e58139"] ;
371 -> 372 ;
373 [label=<gini = 0.017<br/>samples = 0.0%>, fillcolor="#f3c7a6"] ;
371 -> 373 ;
374 [label=<gini = 0.0<br/>samples = 0.0%>, fillcolor="#e58139"] ;
370 -> 374 ;
375 [label=<Importo &le; -0.041<br/>gini = 0.012<br/>samples = 0.0%>, fillcolor="#f0b58b"] ;
369 -> 375 ;
376 [label=<gini = 0.0<br/>samples = 0.0%>, fillcolor="#e58139"] ;
375 -> 376 ;
377 [label=<Importo &le; -0.04<br/>gini = 0.008<br/>samples = 0.0%>, fillcolor="#eca36f"] ;
375 -> 377 ;
378 [label=<gini = 0.0<br/>samples = 0.0%>, fillcolor="#e58139"] ;
377 -> 378 ;
379 [label=<Importo &le; -0.04<br/>gini = 0.011<br/>samples = 0.0%>, fillcolor="#eead7f"] ;
377 -> 379 ;
380 [label=<gini = 0.015<br/>samples = 0.0%>, fillcolor="#f2bf9a"] ;
379 -> 380 ;
381 [label=<gini = 0.0<br/>samples = 0.0%>, fillcolor="#e58139"] ;
379 -> 381 ;
382 [label=<gini = 0.0<br/>samples = 0.0%>, fillcolor="#e58139"] ;
368 -> 382 ;
383 [label=<gini = 0.0<br/>samples = 0.0%>, fillcolor="#e58139"] ;
335 -> 383 ;
384 [label=<gini = 0.0<br/>samples = 0.0%>, fillcolor="#e58139"] ;
334 -> 384 ;
385 [label=<CoDitta &le; -0.324<br/>gini = 0.018<br/>samples = 0.1%>, fillcolor="#f4cbae"] ;
15 -> 385 ;
386 [label=<CoDitta &le; -0.437<br/>gini = 0.025<br/>samples = 0.0%>, fillcolor="#fae8db"] ;
385 -> 386 ;
387 [label=<CoDitta &le; -0.444<br/>gini = 0.018<br/>samples = 0.0%>, fillcolor="#f5ceb2"] ;
386 -> 387 ;
388 [label=<Importo &le; -0.045<br/>gini = 0.007<br/>samples = 0.0%>, fillcolor="#eb9c64"] ;
387 -> 388 ;
389 [label=<gini = 0.0<br/>samples = 0.0%>, fillcolor="#e58139"] ;
388 -> 389 ;
390 [label=<gini = 0.0<br/>samples = 0.0%>, fillcolor="#e58139"] ;
388 -> 390 ;
391 [label=<gini = 0.0<br/>samples = 0.0%>, fillcolor="#e58139"] ;
387 -> 391 ;
392 [label=<Ateco &le; -0.044<br/>gini = 0.014<br/>samples = 0.0%>, fillcolor="#f1bb94"] ;
386 -> 392 ;
393 [label=<Importo &le; -0.083<br/>gini = 0.005<br/>samples = 0.0%>, fillcolor="#e99558"] ;
392 -> 393 ;
394 [label=<gini = 0.0<br/>samples = 0.0%>, fillcolor="#e58139"] ;
393 -> 394 ;
395 [label=<gini = 0.0<br/>samples = 0.0%>, fillcolor="#e58139"] ;
393 -> 395 ;
396 [label=<gini = 0.0<br/>samples = 0.0%>, fillcolor="#e58139"] ;
392 -> 396 ;
397 [label=<Conto &le; 0.642<br/>gini = 0.001<br/>samples = 0.1%>, fillcolor="#e6853f"] ;
385 -> 397 ;
398 [label=<gini = 0.0<br/>samples = 0.1%>, fillcolor="#e58139"] ;
397 -> 398 ;
399 [label=<gini = 0.0<br/>samples = 0.0%>, fillcolor="#e58139"] ;
397 -> 399 ;
400 [label=<Conto &le; 0.573<br/>gini = 0.016<br/>samples = 0.3%>, fillcolor="#f3c5a4"] ;
14 -> 400 ;
401 [label=<TIva &le; 0.08<br/>gini = 0.003<br/>samples = 0.1%>, fillcolor="#e88e4d"] ;
400 -> 401 ;
402 [label=<Importo &le; -0.042<br/>gini = 0.002<br/>samples = 0.1%>, fillcolor="#e78945"] ;
401 -> 402 ;
403 [label=<gini = 0.0<br/>samples = 0.1%>, fillcolor="#e58139"] ;
402 -> 403 ;
404 [label=<Importo &le; -0.041<br/>gini = 0.005<br/>samples = 0.0%>, fillcolor="#e9965a"] ;
402 -> 404 ;
405 [label=<Ateco &le; -0.206<br/>gini = 0.015<br/>samples = 0.0%>, fillcolor="#f2bf9a"] ;
404 -> 405 ;
406 [label=<gini = 0.0<br/>samples = 0.0%>, fillcolor="#e58139"] ;
405 -> 406 ;
407 [label=<gini = 0.0<br/>samples = 0.0%>, fillcolor="#e58139"] ;
405 -> 407 ;
408 [label=<CoDitta &le; 1.352<br/>gini = 0.002<br/>samples = 0.0%>, fillcolor="#e78946"] ;
404 -> 408 ;
409 [label=<Importo &le; -0.04<br/>gini = 0.009<br/>samples = 0.0%>, fillcolor="#eda876"] ;
408 -> 409 ;
410 [label=<Importo &le; -0.041<br/>gini = 0.015<br/>samples = 0.0%>, fillcolor="#f2bf9a"] ;
409 -> 410 ;
411 [label=<gini = 0.0<br/>samples = 0.0%>, fillcolor="#e58139"] ;
410 -> 411 ;
412 [label=<gini = 0.0<br/>samples = 0.0%>, fillcolor="#e58139"] ;
410 -> 412 ;
413 [label=<gini = 0.0<br/>samples = 0.0%>, fillcolor="#e58139"] ;
409 -> 413 ;
414 [label=<gini = 0.0<br/>samples = 0.0%>, fillcolor="#e58139"] ;
408 -> 414 ;
415 [label=<gini = 0.0<br/>samples = 0.0%>, fillcolor="#e58139"] ;
401 -> 415 ;
416 [label=<Conto &le; 0.707<br/>gini = 0.001<br/>samples = 0.2%>, fillcolor="#e68640"] ;
400 -> 416 ;
417 [label=<Importo &le; -0.102<br/>gini = 0.001<br/>samples = 0.2%>, fillcolor="#e6843e"] ;
416 -> 417 ;
418 [label=<Conto &le; 0.707<br/>gini = 0.009<br/>samples = 0.0%>, fillcolor="#eda876"] ;
417 -> 418 ;
419 [label=<gini = 0.0<br/>samples = 0.0%>, fillcolor="#e58139"] ;
418 -> 419 ;
420 [label=<gini = 0.0<br/>samples = 0.0%>, fillcolor="#e58139"] ;
418 -> 420 ;
421 [label=<Importo &le; -0.04<br/>gini = 0.0<br/>samples = 0.2%>, fillcolor="#e5833c"] ;
417 -> 421 ;
422 [label=<gini = 0.0<br/>samples = 0.2%>, fillcolor="#e58139"] ;
421 -> 422 ;
423 [label=<CoDitta &le; -0.451<br/>gini = 0.008<br/>samples = 0.0%>, fillcolor="#eca36f"] ;
421 -> 423 ;
424 [label=<gini = 0.0<br/>samples = 0.0%>, fillcolor="#e58139"] ;
423 -> 424 ;
425 [label=<gini = 0.0<br/>samples = 0.0%>, fillcolor="#e58139"] ;
423 -> 425 ;
426 [label=<gini = 0.0<br/>samples = 0.0%>, fillcolor="#e58139"] ;
416 -> 426 ;
427 [label=<Ateco &le; 1.593<br/>gini = 0.017<br/>samples = 0.3%>, fillcolor="#f4c9ab"] ;
13 -> 427 ;
428 [label=<Conto &le; 0.646<br/>gini = 0.018<br/>samples = 0.1%>, fillcolor="#f4cbad"] ;
427 -> 428 ;
429 [label=<CoDitta &le; 1.332<br/>gini = 0.012<br/>samples = 0.1%>, fillcolor="#efb388"] ;
428 -> 429 ;
430 [label=<Importo &le; -0.045<br/>gini = 0.01<br/>samples = 0.1%>, fillcolor="#eeac7d"] ;
429 -> 430 ;
431 [label=<ContoStd &le; -3.639<br/>gini = 0.022<br/>samples = 0.0%>, fillcolor="#f8dbc7"] ;
430 -> 431 ;
432 [label=<gini = 0.0<br/>samples = 0.0%>, fillcolor="#e58139"] ;
431 -> 432 ;
433 [label=<CoDitta &le; -0.119<br/>gini = 0.019<br/>samples = 0.0%>, fillcolor="#f5cfb4"] ;
431 -> 433 ;
434 [label=<CoDitta &le; -0.433<br/>gini = 0.017<br/>samples = 0.0%>, fillcolor="#f4c8a9"] ;
433 -> 434 ;
435 [label=<Ateco &le; 0.006<br/>gini = 0.012<br/>samples = 0.0%>, fillcolor="#f0b58b"] ;
434 -> 435 ;
436 [label=<gini = 0.0<br/>samples = 0.0%>, fillcolor="#e58139"] ;
435 -> 436 ;
437 [label=<Conto &le; 0.011<br/>gini = 0.017<br/>samples = 0.0%>, fillcolor="#f3c7a6"] ;
435 -> 437 ;
438 [label=<gini = 0.0<br/>samples = 0.0%>, fillcolor="#e58139"] ;
437 -> 438 ;
439 [label=<gini = 0.0<br/>samples = 0.0%>, fillcolor="#e58139"] ;
437 -> 439 ;
440 [label=<gini = 0.0<br/>samples = 0.0%>, fillcolor="#e58139"] ;
434 -> 440 ;
441 [label=<gini = 0.0<br/>samples = 0.0%>, fillcolor="#e58139"] ;
433 -> 441 ;
442 [label=<CoDitta &le; -0.462<br/>gini = 0.005<br/>samples = 0.1%>, fillcolor="#ea975c"] ;
430 -> 442 ;
443 [label=<gini = 0.0<br/>samples = 0.0%>, fillcolor="#e58139"] ;
442 -> 443 ;
444 [label=<ContoStd &le; 0.011<br/>gini = 0.005<br/>samples = 0.1%>, fillcolor="#e99558"] ;
442 -> 444 ;
445 [label=<CoDitta &le; -0.45<br/>gini = 0.011<br/>samples = 0.0%>, fillcolor="#eead7f"] ;
444 -> 445 ;
446 [label=<Importo &le; -0.041<br/>gini = 0.017<br/>samples = 0.0%>, fillcolor="#f3c6a5"] ;
445 -> 446 ;
447 [label=<gini = 0.0<br/>samples = 0.0%>, fillcolor="#e58139"] ;
446 -> 447 ;
448 [label=<Importo &le; -0.041<br/>gini = 0.016<br/>samples = 0.0%>, fillcolor="#f3c4a2"] ;
446 -> 448 ;
449 [label=<gini = 0.017<br/>samples = 0.0%>, fillcolor="#f3c7a6"] ;
448 -> 449 ;
450 [label=<Importo &le; -0.04<br/>gini = 0.012<br/>samples = 0.0%>, fillcolor="#f0b58b"] ;
448 -> 450 ;
451 [label=<gini = 0.0<br/>samples = 0.0%>, fillcolor="#e58139"] ;
450 -> 451 ;
452 [label=<gini = 0.015<br/>samples = 0.0%>, fillcolor="#f2bf9a"] ;
450 -> 452 ;
453 [label=<gini = 0.0<br/>samples = 0.0%>, fillcolor="#e58139"] ;
445 -> 453 ;
454 [label=<Ateco &le; -0.031<br/>gini = 0.001<br/>samples = 0.1%>, fillcolor="#e68641"] ;
444 -> 454 ;
455 [label=<CoDitta &le; -0.374<br/>gini = 0.008<br/>samples = 0.0%>, fillcolor="#eca36f"] ;
454 -> 455 ;
456 [label=<gini = 0.0<br/>samples = 0.0%>, fillcolor="#e58139"] ;
455 -> 456 ;
457 [label=<gini = 0.0<br/>samples = 0.0%>, fillcolor="#e58139"] ;
455 -> 457 ;
458 [label=<gini = 0.0<br/>samples = 0.0%>, fillcolor="#e58139"] ;
454 -> 458 ;
459 [label=<gini = 0.0<br/>samples = 0.0%>, fillcolor="#e58139"] ;
429 -> 459 ;
460 [label=<Ateco &le; 1.272<br/>gini = 0.019<br/>samples = 0.0%>, fillcolor="#f6d2b8"] ;
428 -> 460 ;
461 [label=<Ateco &le; -0.003<br/>gini = 0.013<br/>samples = 0.0%>, fillcolor="#f0b78e"] ;
460 -> 461 ;
462 [label=<Importo &le; -0.042<br/>gini = 0.017<br/>samples = 0.0%>, fillcolor="#f3c7a6"] ;
461 -> 462 ;
463 [label=<gini = 0.0<br/>samples = 0.0%>, fillcolor="#e58139"] ;
462 -> 463 ;
464 [label=<gini = 0.0<br/>samples = 0.0%>, fillcolor="#e58139"] ;
462 -> 464 ;
465 [label=<Importo &le; -0.046<br/>gini = 0.006<br/>samples = 0.0%>, fillcolor="#ea985d"] ;
461 -> 465 ;
466 [label=<Importo &le; -0.047<br/>gini = 0.017<br/>samples = 0.0%>, fillcolor="#f3c7a6"] ;
465 -> 466 ;
467 [label=<gini = 0.0<br/>samples = 0.0%>, fillcolor="#e58139"] ;
466 -> 467 ;
468 [label=<gini = 0.0<br/>samples = 0.0%>, fillcolor="#e58139"] ;
466 -> 468 ;
469 [label=<gini = 0.0<br/>samples = 0.0%>, fillcolor="#e58139"] ;
465 -> 469 ;
470 [label=<gini = 0.0<br/>samples = 0.0%>, fillcolor="#e58139"] ;
460 -> 470 ;
471 [label=<Caus &le; -0.09<br/>gini = 0.002<br/>samples = 0.2%>, fillcolor="#e78a47"] ;
427 -> 471 ;
472 [label=<gini = 0.0<br/>samples = 0.2%>, fillcolor="#e58139"] ;
471 -> 472 ;
473 [label=<ContoStd &le; -1.527<br/>gini = 0.02<br/>samples = 0.0%>, fillcolor="#f7d6bf"] ;
471 -> 473 ;
474 [label=<gini = 0.0<br/>samples = 0.0%>, fillcolor="#e58139"] ;
473 -> 474 ;
475 [label=<Ateco &le; 2.095<br/>gini = 0.015<br/>samples = 0.0%>, fillcolor="#f2bf9a"] ;
473 -> 475 ;
476 [label=<gini = 0.0<br/>samples = 0.0%>, fillcolor="#e58139"] ;
475 -> 476 ;
477 [label=<gini = 0.0<br/>samples = 0.0%>, fillcolor="#e58139"] ;
475 -> 477 ;
478 [label=<TIva &le; 0.178<br/>gini = 0.015<br/>samples = 0.4%>, fillcolor="#f2c19e"] ;
12 -> 478 ;
479 [label=<Ateco &le; 0.0<br/>gini = 0.0<br/>samples = 0.1%>, fillcolor="#e5833c"] ;
478 -> 479 ;
480 [label=<gini = 0.0<br/>samples = 0.1%>, fillcolor="#e58139"] ;
479 -> 480 ;
481 [label=<Conto &le; 0.22<br/>gini = 0.008<br/>samples = 0.0%>, fillcolor="#eca36f"] ;
479 -> 481 ;
482 [label=<gini = 0.0<br/>samples = 0.0%>, fillcolor="#e58139"] ;
481 -> 482 ;
483 [label=<gini = 0.0<br/>samples = 0.0%>, fillcolor="#e58139"] ;
481 -> 483 ;
484 [label=<Conto &le; 1.265<br/>gini = 0.002<br/>samples = 0.3%>, fillcolor="#e78845"] ;
478 -> 484 ;
485 [label=<Conto &le; 0.581<br/>gini = 0.002<br/>samples = 0.3%>, fillcolor="#e68843"] ;
484 -> 485 ;
486 [label=<CoDitta &le; -0.41<br/>gini = 0.001<br/>samples = 0.2%>, fillcolor="#e6843d"] ;
485 -> 486 ;
487 [label=<Importo &le; -0.047<br/>gini = 0.001<br/>samples = 0.1%>, fillcolor="#e68743"] ;
486 -> 487 ;
488 [label=<Importo &le; -0.048<br/>gini = 0.008<br/>samples = 0.0%>, fillcolor="#eca36f"] ;
487 -> 488 ;
489 [label=<gini = 0.0<br/>samples = 0.0%>, fillcolor="#e58139"] ;
488 -> 489 ;
490 [label=<CoDitta &le; -0.419<br/>gini = 0.015<br/>samples = 0.0%>, fillcolor="#f2bf9a"] ;
488 -> 490 ;
491 [label=<gini = 0.0<br/>samples = 0.0%>, fillcolor="#e58139"] ;
490 -> 491 ;
492 [label=<gini = 0.017<br/>samples = 0.0%>, fillcolor="#f3c7a6"] ;
490 -> 492 ;
493 [label=<Importo &le; -0.046<br/>gini = 0.001<br/>samples = 0.1%>, fillcolor="#e6843e"] ;
487 -> 493 ;
494 [label=<Importo &le; -0.046<br/>gini = 0.003<br/>samples = 0.0%>, fillcolor="#e78c4a"] ;
493 -> 494 ;
495 [label=<gini = 0.0<br/>samples = 0.0%>, fillcolor="#e58139"] ;
494 -> 495 ;
496 [label=<Tdoc_TD24 &le; 0.5<br/>gini = 0.006<br/>samples = 0.0%>, fillcolor="#ea985d"] ;
494 -> 496 ;
497 [label=<gini = 0.0<br/>samples = 0.0%>, fillcolor="#e58139"] ;
496 -> 497 ;
498 [label=<gini = 0.006<br/>samples = 0.0%>, fillcolor="#ea9a60"] ;
496 -> 498 ;
499 [label=<gini = 0.0<br/>samples = 0.1%>, fillcolor="#e58139"] ;
493 -> 499 ;
500 [label=<gini = 0.0<br/>samples = 0.1%>, fillcolor="#e58139"] ;
486 -> 500 ;
501 [label=<ContoStd &le; 0.581<br/>gini = 0.004<br/>samples = 0.1%>, fillcolor="#e89254"] ;
485 -> 501 ;
502 [label=<gini = 0.0<br/>samples = 0.0%>, fillcolor="#e58139"] ;
501 -> 502 ;
503 [label=<Conto &le; 0.581<br/>gini = 0.003<br/>samples = 0.1%>, fillcolor="#e88f4f"] ;
501 -> 503 ;
504 [label=<Caus &le; 3.773<br/>gini = 0.011<br/>samples = 0.0%>, fillcolor="#efb083"] ;
503 -> 504 ;
505 [label=<Importo &le; -0.048<br/>gini = 0.012<br/>samples = 0.0%>, fillcolor="#f0b58b"] ;
504 -> 505 ;
506 [label=<gini = 0.0<br/>samples = 0.0%>, fillcolor="#e58139"] ;
505 -> 506 ;
507 [label=<gini = 0.015<br/>samples = 0.0%>, fillcolor="#f2bf9a"] ;
505 -> 507 ;
508 [label=<gini = 0.0<br/>samples = 0.0%>, fillcolor="#e58139"] ;
504 -> 508 ;
509 [label=<Ateco &le; 0.032<br/>gini = 0.001<br/>samples = 0.1%>, fillcolor="#e68540"] ;
503 -> 509 ;
510 [label=<gini = 0.0<br/>samples = 0.0%>, fillcolor="#e58139"] ;
509 -> 510 ;
511 [label=<Ateco &le; 0.043<br/>gini = 0.003<br/>samples = 0.0%>, fillcolor="#e88e4d"] ;
509 -> 511 ;
512 [label=<gini = 0.0<br/>samples = 0.0%>, fillcolor="#e58139"] ;
511 -> 512 ;
513 [label=<gini = 0.0<br/>samples = 0.0%>, fillcolor="#e58139"] ;
511 -> 513 ;
514 [label=<gini = 0.0<br/>samples = 0.0%>, fillcolor="#e58139"] ;
484 -> 514 ;
515 [label=<gini = 0.0<br/>samples = 0.3%>, fillcolor="#e58139"] ;
11 -> 515 ;
516 [label=<Ateco &le; 0.025<br/>gini = 0.011<br/>samples = 0.4%>, fillcolor="#eeae7f"] ;
10 -> 516 ;
517 [label=<Caus &le; -0.09<br/>gini = 0.024<br/>samples = 0.1%>, fillcolor="#fae5d7"] ;
516 -> 517 ;
518 [label=<gini = 0.0<br/>samples = 0.0%>, fillcolor="#e58139"] ;
517 -> 518 ;
519 [label=<Conto &le; 0.707<br/>gini = 0.02<br/>samples = 0.1%>, fillcolor="#f7d6bf"] ;
517 -> 519 ;
520 [label=<Importo &le; -0.04<br/>gini = 0.014<br/>samples = 0.0%>, fillcolor="#f1bc95"] ;
519 -> 520 ;
521 [label=<CoDitta &le; -0.42<br/>gini = 0.008<br/>samples = 0.0%>, fillcolor="#eca16b"] ;
520 -> 521 ;
522 [label=<gini = 0.0<br/>samples = 0.0%>, fillcolor="#e58139"] ;
521 -> 522 ;
523 [label=<Conto &le; 0.707<br/>gini = 0.005<br/>samples = 0.0%>, fillcolor="#e9965a"] ;
521 -> 523 ;
524 [label=<ContoStd &le; -1.021<br/>gini = 0.017<br/>samples = 0.0%>, fillcolor="#f3c7a6"] ;
523 -> 524 ;
525 [label=<gini = 0.0<br/>samples = 0.0%>, fillcolor="#e58139"] ;
524 -> 525 ;
526 [label=<Importo &le; -0.043<br/>gini = 0.012<br/>samples = 0.0%>, fillcolor="#f0b58b"] ;
524 -> 526 ;
527 [label=<gini = 0.0<br/>samples = 0.0%>, fillcolor="#e58139"] ;
526 -> 527 ;
528 [label=<gini = 0.0<br/>samples = 0.0%>, fillcolor="#e58139"] ;
526 -> 528 ;
529 [label=<gini = 0.0<br/>samples = 0.0%>, fillcolor="#e58139"] ;
523 -> 529 ;
530 [label=<Importo &le; -0.039<br/>gini = 0.013<br/>samples = 0.0%>, fillcolor="#f0b78e"] ;
520 -> 530 ;
531 [label=<Ateco &le; -0.886<br/>gini = 0.006<br/>samples = 0.0%>, fillcolor="#ea985d"] ;
530 -> 531 ;
532 [label=<gini = 0.0<br/>samples = 0.0%>, fillcolor="#e58139"] ;
531 -> 532 ;
533 [label=<gini = 0.0<br/>samples = 0.0%>, fillcolor="#e58139"] ;
531 -> 533 ;
534 [label=<ContoStd &le; 0.707<br/>gini = 0.012<br/>samples = 0.0%>, fillcolor="#f0b58b"] ;
530 -> 534 ;
535 [label=<gini = 0.0<br/>samples = 0.0%>, fillcolor="#e58139"] ;
534 -> 535 ;
536 [label=<gini = 0.0<br/>samples = 0.0%>, fillcolor="#e58139"] ;
534 -> 536 ;
537 [label=<CoDitta &le; -0.335<br/>gini = 0.007<br/>samples = 0.0%>, fillcolor="#eb9c64"] ;
519 -> 537 ;
538 [label=<gini = 0.0<br/>samples = 0.0%>, fillcolor="#e58139"] ;
537 -> 538 ;
539 [label=<gini = 0.0<br/>samples = 0.0%>, fillcolor="#e58139"] ;
537 -> 539 ;
540 [label=<Ateco &le; 0.709<br/>gini = 0.001<br/>samples = 0.3%>, fillcolor="#e5833d"] ;
516 -> 540 ;
541 [label=<gini = 0.0<br/>samples = 0.3%>, fillcolor="#e58139"] ;
540 -> 541 ;
542 [label=<Conto &le; 0.707<br/>gini = 0.015<br/>samples = 0.0%>, fillcolor="#f2bf9a"] ;
540 -> 542 ;
543 [label=<gini = 0.0<br/>samples = 0.0%>, fillcolor="#e58139"] ;
542 -> 543 ;
544 [label=<gini = 0.0<br/>samples = 0.0%>, fillcolor="#e58139"] ;
542 -> 544 ;
545 [label=<ContoStd &le; 0.298<br/>gini = 0.0<br/>samples = 0.4%>, fillcolor="#e5823a"] ;
9 -> 545 ;
546 [label=<gini = 0.0<br/>samples = 0.0%>, fillcolor="#e58139"] ;
545 -> 546 ;
547 [label=<gini = 0.0<br/>samples = 0.4%>, fillcolor="#e58139"] ;
545 -> 547 ;
548 [label=<Ateco &le; 1.704<br/>gini = 0.027<br/>samples = 7.3%>, fillcolor="#fcf0e7"] ;
8 -> 548 ;
549 [label=<Conto &le; 0.567<br/>gini = 0.025<br/>samples = 5.5%>, fillcolor="#fae9dc"] ;
548 -> 549 ;
550 [label=<Iva_N6.3 &le; 0.5<br/>gini = 0.026<br/>samples = 2.6%>, fillcolor="#fceee5"] ;
549 -> 550 ;
551 [label=<Iva_N6.1 &le; 0.5<br/>gini = 0.026<br/>samples = 1.7%>, fillcolor="#fbeee4"] ;
550 -> 551 ;
552 [label=<Iva_N5 &le; 0.5<br/>gini = 0.024<br/>samples = 1.4%>, fillcolor="#fae5d6"] ;
551 -> 552 ;
553 [label=<ContoStd &le; -0.198<br/>gini = 0.018<br/>samples = 1.0%>, fillcolor="#f5cdb1"] ;
552 -> 553 ;
554 [label=<Iva_N6.9 &le; 0.5<br/>gini = 0.003<br/>samples = 0.6%>, fillcolor="#e88e4e"] ;
553 -> 554 ;
555 [label=<Iva_N6.4 &le; 0.5<br/>gini = 0.002<br/>samples = 0.6%>, fillcolor="#e78b49"] ;
554 -> 555 ;
556 [label=<Iva_N6.6 &le; 0.5<br/>gini = 0.002<br/>samples = 0.6%>, fillcolor="#e78945"] ;
555 -> 556 ;
557 [label=<CoDitta &le; -0.447<br/>gini = 0.002<br/>samples = 0.6%>, fillcolor="#e68743"] ;
556 -> 557 ;
558 [label=<Tdoc_TD24 &le; 0.5<br/>gini = 0.009<br/>samples = 0.1%>, fillcolor="#eda877"] ;
557 -> 558 ;
559 [label=<CoDitta &le; -0.448<br/>gini = 0.001<br/>samples = 0.1%>, fillcolor="#e68641"] ;
558 -> 559 ;
560 [label=<gini = 0.0<br/>samples = 0.1%>, fillcolor="#e58139"] ;
559 -> 560 ;
561 [label=<gini = 0.0<br/>samples = 0.0%>, fillcolor="#e58139"] ;
559 -> 561 ;
562 [label=<gini = 0.0<br/>samples = 0.0%>, fillcolor="#e58139"] ;
558 -> 562 ;
563 [label=<Iva_N6 &le; 0.5<br/>gini = 0.0<br/>samples = 0.5%>, fillcolor="#e5833b"] ;
557 -> 563 ;
564 [label=<Iva_N3.4 &le; 0.5<br/>gini = 0.0<br/>samples = 0.5%>, fillcolor="#e5823b"] ;
563 -> 564 ;
565 [label=<Importo &le; -0.037<br/>gini = 0.0<br/>samples = 0.5%>, fillcolor="#e5823a"] ;
564 -> 565 ;
566 [label=<Ateco &le; 1.19<br/>gini = 0.008<br/>samples = 0.0%>, fillcolor="#eca36f"] ;
565 -> 566 ;
567 [label=<gini = 0.0<br/>samples = 0.0%>, fillcolor="#e58139"] ;
566 -> 567 ;
568 [label=<gini = 0.0<br/>samples = 0.0%>, fillcolor="#e58139"] ;
566 -> 568 ;
569 [label=<gini = 0.0<br/>samples = 0.5%>, fillcolor="#e58139"] ;
565 -> 569 ;
570 [label=<gini = 0.0<br/>samples = 0.0%>, fillcolor="#e58139"] ;
564 -> 570 ;
571 [label=<gini = 0.0<br/>samples = 0.0%>, fillcolor="#e58139"] ;
563 -> 571 ;
572 [label=<gini = 0.0<br/>samples = 0.0%>, fillcolor="#e58139"] ;
556 -> 572 ;
573 [label=<TIva &le; 0.08<br/>gini = 0.016<br/>samples = 0.0%>, fillcolor="#f3c4a2"] ;
555 -> 573 ;
574 [label=<gini = 0.0<br/>samples = 0.0%>, fillcolor="#e58139"] ;
573 -> 574 ;
575 [label=<gini = 0.0<br/>samples = 0.0%>, fillcolor="#e58139"] ;
573 -> 575 ;
576 [label=<gini = 0.0<br/>samples = 0.0%>, fillcolor="#e58139"] ;
554 -> 576 ;
577 [label=<Iva_N3.3 &le; 0.5<br/>gini = 0.028<br/>samples = 0.4%>, fillcolor="#fdf7f2"] ;
553 -> 577 ;
578 [label=<Iva_N3.4 &le; 0.5<br/>gini = 0.027<br/>samples = 0.4%>, fillcolor="#fdf3ed"] ;
577 -> 578 ;
579 [label=<Iva_N6 &le; 0.5<br/>gini = 0.026<br/>samples = 0.3%>, fillcolor="#fbede3"] ;
578 -> 579 ;
580 [label=<Iva_N3 &le; 0.5<br/>gini = 0.023<br/>samples = 0.2%>, fillcolor="#f9e1cf"] ;
579 -> 580 ;
581 [label=<Iva_N6.2 &le; 0.5<br/>gini = 0.019<br/>samples = 0.2%>, fillcolor="#f6d1b7"] ;
580 -> 581 ;
582 [label=<CoDitta &le; -0.384<br/>gini = 0.016<br/>samples = 0.2%>, fillcolor="#f3c4a3"] ;
581 -> 582 ;
583 [label=<CoDitta &le; -0.398<br/>gini = 0.028<br/>samples = 0.1%>, fillcolor="#fdf6f0"] ;
582 -> 583 ;
584 [label=<Iva_N6.5 &le; 0.5<br/>gini = 0.027<br/>samples = 0.0%>, fillcolor="#fcf1e9"] ;
583 -> 584 ;
585 [label=<Importo &le; 0.143<br/>gini = 0.025<br/>samples = 0.0%>, fillcolor="#fbebdf"] ;
584 -> 585 ;
586 [label=<Ateco &le; -0.019<br/>gini = 0.023<br/>samples = 0.0%>, fillcolor="#f9e1d0"] ;
585 -> 586 ;
587 [label=<Ateco &le; -0.04<br/>gini = 0.024<br/>samples = 0.0%>, fillcolor="#fae6d7"] ;
586 -> 587 ;
588 [label=<CoDitta &le; -0.426<br/>gini = 0.024<br/>samples = 0.0%>, fillcolor="#fae5d6"] ;
587 -> 588 ;
589 [label=<CoDitta &le; -0.448<br/>gini = 0.021<br/>samples = 0.0%>, fillcolor="#f7dac5"] ;
588 -> 589 ;
590 [label=<Conto &le; 0.011<br/>gini = 0.015<br/>samples = 0.0%>, fillcolor="#f2bf9a"] ;
589 -> 590 ;
591 [label=<gini = 0.0<br/>samples = 0.0%>, fillcolor="#e58139"] ;
590 -> 591 ;
592 [label=<gini = 0.0<br/>samples = 0.0%>, fillcolor="#e58139"] ;
590 -> 592 ;
593 [label=<gini = 0.0<br/>samples = 0.0%>, fillcolor="#e58139"] ;
589 -> 593 ;
594 [label=<gini = 0.0<br/>samples = 0.0%>, fillcolor="#e58139"] ;
588 -> 594 ;
595 [label=<gini = 0.0<br/>samples = 0.0%>, fillcolor="#e58139"] ;
587 -> 595 ;
596 [label=<Iva_N6.9 &le; 0.5<br/>gini = 0.007<br/>samples = 0.0%>, fillcolor="#eb9e66"] ;
586 -> 596 ;
597 [label=<gini = 0.0<br/>samples = 0.0%>, fillcolor="#e58139"] ;
596 -> 597 ;
598 [label=<gini = 0.0<br/>samples = 0.0%>, fillcolor="#e58139"] ;
596 -> 598 ;
599 [label=<gini = 0.0<br/>samples = 0.0%>, fillcolor="#e58139"] ;
585 -> 599 ;
600 [label=<gini = 0.0<br/>samples = 0.0%>, fillcolor="#e58139"] ;
584 -> 600 ;
601 [label=<gini = 0.0<br/>samples = 0.0%>, fillcolor="#e58139"] ;
583 -> 601 ;
602 [label=<CoDitta &le; -0.328<br/>gini = 0.004<br/>samples = 0.1%>, fillcolor="#e89253"] ;
582 -> 602 ;
603 [label=<ContoStd &le; 0.221<br/>gini = 0.014<br/>samples = 0.0%>, fillcolor="#f1bd97"] ;
602 -> 603 ;
604 [label=<Conto &le; 0.014<br/>gini = 0.009<br/>samples = 0.0%>, fillcolor="#eda876"] ;
603 -> 604 ;
605 [label=<Importo &le; 0.022<br/>gini = 0.017<br/>samples = 0.0%>, fillcolor="#f3c7a6"] ;
604 -> 605 ;
606 [label=<gini = 0.0<br/>samples = 0.0%>, fillcolor="#e58139"] ;
605 -> 606 ;
607 [label=<gini = 0.0<br/>samples = 0.0%>, fillcolor="#e58139"] ;
605 -> 607 ;
608 [label=<gini = 0.0<br/>samples = 0.0%>, fillcolor="#e58139"] ;
604 -> 608 ;
609 [label=<gini = 0.0<br/>samples = 0.0%>, fillcolor="#e58139"] ;
603 -> 609 ;
610 [label=<Tdoc_TD04 &le; 0.5<br/>gini = 0.001<br/>samples = 0.1%>, fillcolor="#e68742"] ;
602 -> 610 ;
611 [label=<CoDitta &le; -0.176<br/>gini = 0.001<br/>samples = 0.1%>, fillcolor="#e6843e"] ;
610 -> 611 ;
612 [label=<CoDitta &le; -0.235<br/>gini = 0.007<br/>samples = 0.0%>, fillcolor="#eb9f69"] ;
611 -> 612 ;
613 [label=<gini = 0.0<br/>samples = 0.0%>, fillcolor="#e58139"] ;
612 -> 613 ;
614 [label=<gini = 0.0<br/>samples = 0.0%>, fillcolor="#e58139"] ;
612 -> 614 ;
615 [label=<gini = 0.0<br/>samples = 0.1%>, fillcolor="#e58139"] ;
611 -> 615 ;
616 [label=<Ateco &le; -0.116<br/>gini = 0.017<br/>samples = 0.0%>, fillcolor="#f3c7a6"] ;
610 -> 616 ;
617 [label=<gini = 0.0<br/>samples = 0.0%>, fillcolor="#e58139"] ;
616 -> 617 ;
618 [label=<gini = 0.0<br/>samples = 0.0%>, fillcolor="#e58139"] ;
616 -> 618 ;
619 [label=<gini = 0.0<br/>samples = 0.0%>, fillcolor="#e58139"] ;
581 -> 619 ;
620 [label=<CoDitta &le; -0.067<br/>gini = 0.012<br/>samples = 0.0%>, fillcolor="#efb185"] ;
580 -> 620 ;
621 [label=<ContoStd &le; 0.013<br/>gini = 0.005<br/>samples = 0.0%>, fillcolor="#ea985d"] ;
620 -> 621 ;
622 [label=<ContoStd &le; 0.011<br/>gini = 0.002<br/>samples = 0.0%>, fillcolor="#e78946"] ;
621 -> 622 ;
623 [label=<Caus &le; -0.142<br/>gini = 0.012<br/>samples = 0.0%>, fillcolor="#f0b58b"] ;
622 -> 623 ;
624 [label=<gini = 0.0<br/>samples = 0.0%>, fillcolor="#e58139"] ;
623 -> 624 ;
625 [label=<gini = 0.0<br/>samples = 0.0%>, fillcolor="#e58139"] ;
623 -> 625 ;
626 [label=<gini = 0.0<br/>samples = 0.0%>, fillcolor="#e58139"] ;
622 -> 626 ;
627 [label=<gini = 0.0<br/>samples = 0.0%>, fillcolor="#e58139"] ;
621 -> 627 ;
628 [label=<Ateco &le; -1.151<br/>gini = 0.011<br/>samples = 0.0%>, fillcolor="#eead7f"] ;
620 -> 628 ;
629 [label=<gini = 0.0<br/>samples = 0.0%>, fillcolor="#e58139"] ;
628 -> 629 ;
630 [label=<gini = 0.0<br/>samples = 0.0%>, fillcolor="#e58139"] ;
628 -> 630 ;
631 [label=<CoDitta &le; -0.181<br/>gini = 0.017<br/>samples = 0.1%>, fillcolor="#f4c9a9"] ;
579 -> 631 ;
632 [label=<gini = 0.0<br/>samples = 0.0%>, fillcolor="#e58139"] ;
631 -> 632 ;
633 [label=<Importo &le; -0.034<br/>gini = 0.014<br/>samples = 0.0%>, fillcolor="#f1bc96"] ;
631 -> 633 ;
634 [label=<Importo &le; -0.034<br/>gini = 0.003<br/>samples = 0.0%>, fillcolor="#e89050"] ;
633 -> 634 ;
635 [label=<gini = 0.0<br/>samples = 0.0%>, fillcolor="#e58139"] ;
634 -> 635 ;
636 [label=<Importo &le; -0.034<br/>gini = 0.011<br/>samples = 0.0%>, fillcolor="#eead7f"] ;
634 -> 636 ;
637 [label=<gini = 0.0<br/>samples = 0.0%>, fillcolor="#e58139"] ;
636 -> 637 ;
638 [label=<gini = 0.0<br/>samples = 0.0%>, fillcolor="#e58139"] ;
636 -> 638 ;
639 [label=<Importo &le; 0.01<br/>gini = 0.016<br/>samples = 0.0%>, fillcolor="#f3c6a5"] ;
633 -> 639 ;
640 [label=<Importo &le; -0.033<br/>gini = 0.016<br/>samples = 0.0%>, fillcolor="#f3c4a2"] ;
639 -> 640 ;
641 [label=<gini = 0.0<br/>samples = 0.0%>, fillcolor="#e58139"] ;
640 -> 641 ;
642 [label=<Importo &le; -0.026<br/>gini = 0.016<br/>samples = 0.0%>, fillcolor="#f3c3a1"] ;
640 -> 642 ;
643 [label=<Importo &le; -0.028<br/>gini = 0.013<br/>samples = 0.0%>, fillcolor="#f0b78e"] ;
642 -> 643 ;
644 [label=<Importo &le; -0.03<br/>gini = 0.016<br/>samples = 0.0%>, fillcolor="#f3c4a2"] ;
643 -> 644 ;
645 [label=<Importo &le; -0.031<br/>gini = 0.012<br/>samples = 0.0%>, fillcolor="#f0b58b"] ;
644 -> 645 ;
646 [label=<Importo &le; -0.031<br/>gini = 0.015<br/>samples = 0.0%>, fillcolor="#f2bf9a"] ;
645 -> 646 ;
647 [label=<Importo &le; -0.032<br/>gini = 0.011<br/>samples = 0.0%>, fillcolor="#eead7f"] ;
646 -> 647 ;
648 [label=<Importo &le; -0.032<br/>gini = 0.017<br/>samples = 0.0%>, fillcolor="#f3c7a6"] ;
647 -> 648 ;
649 [label=<gini = 0.0<br/>samples = 0.0%>, fillcolor="#e58139"] ;
648 -> 649 ;
650 [label=<gini = 0.0<br/>samples = 0.0%>, fillcolor="#e58139"] ;
648 -> 650 ;
651 [label=<gini = 0.0<br/>samples = 0.0%>, fillcolor="#e58139"] ;
647 -> 651 ;
652 [label=<gini = 0.0<br/>samples = 0.0%>, fillcolor="#e58139"] ;
646 -> 652 ;
653 [label=<gini = 0.0<br/>samples = 0.0%>, fillcolor="#e58139"] ;
645 -> 653 ;
654 [label=<gini = 0.0<br/>samples = 0.0%>, fillcolor="#e58139"] ;
644 -> 654 ;
655 [label=<gini = 0.0<br/>samples = 0.0%>, fillcolor="#e58139"] ;
643 -> 655 ;
656 [label=<Importo &le; -0.025<br/>gini = 0.017<br/>samples = 0.0%>, fillcolor="#f3c7a6"] ;
642 -> 656 ;
657 [label=<gini = 0.0<br/>samples = 0.0%>, fillcolor="#e58139"] ;
656 -> 657 ;
658 [label=<Importo &le; -0.019<br/>gini = 0.016<br/>samples = 0.0%>, fillcolor="#f3c3a0"] ;
656 -> 658 ;
659 [label=<Importo &le; -0.025<br/>gini = 0.012<br/>samples = 0.0%>, fillcolor="#f0b58b"] ;
658 -> 659 ;
660 [label=<gini = 0.0<br/>samples = 0.0%>, fillcolor="#e58139"] ;
659 -> 660 ;
661 [label=<Importo &le; -0.025<br/>gini = 0.015<br/>samples = 0.0%>, fillcolor="#f2bf9a"] ;
659 -> 661 ;
662 [label=<gini = 0.0<br/>samples = 0.0%>, fillcolor="#e58139"] ;
661 -> 662 ;
663 [label=<Importo &le; -0.024<br/>gini = 0.011<br/>samples = 0.0%>, fillcolor="#eead7f"] ;
661 -> 663 ;
664 [label=<gini = 0.0<br/>samples = 0.0%>, fillcolor="#e58139"] ;
663 -> 664 ;
665 [label=<Importo &le; -0.023<br/>gini = 0.015<br/>samples = 0.0%>, fillcolor="#f2bf9a"] ;
663 -> 665 ;
666 [label=<gini = 0.0<br/>samples = 0.0%>, fillcolor="#e58139"] ;
665 -> 666 ;
667 [label=<gini = 0.0<br/>samples = 0.0%>, fillcolor="#e58139"] ;
665 -> 667 ;
668 [label=<Importo &le; -0.013<br/>gini = 0.016<br/>samples = 0.0%>, fillcolor="#f3c4a2"] ;
658 -> 668 ;
669 [label=<gini = 0.0<br/>samples = 0.0%>, fillcolor="#e58139"] ;
668 -> 669 ;
670 [label=<Importo &le; -0.006<br/>gini = 0.015<br/>samples = 0.0%>, fillcolor="#f2bf9a"] ;
668 -> 670 ;
671 [label=<gini = 0.0<br/>samples = 0.0%>, fillcolor="#e58139"] ;
670 -> 671 ;
672 [label=<Importo &le; -0.001<br/>gini = 0.017<br/>samples = 0.0%>, fillcolor="#f3c7a6"] ;
670 -> 672 ;
673 [label=<gini = 0.0<br/>samples = 0.0%>, fillcolor="#e58139"] ;
672 -> 673 ;
674 [label=<gini = 0.0<br/>samples = 0.0%>, fillcolor="#e58139"] ;
672 -> 674 ;
675 [label=<gini = 0.0<br/>samples = 0.0%>, fillcolor="#e58139"] ;
639 -> 675 ;
676 [label=<Ateco &le; 0.025<br/>gini = 0.011<br/>samples = 0.1%>, fillcolor="#eeaf81"] ;
578 -> 676 ;
677 [label=<gini = 0.0<br/>samples = 0.1%>, fillcolor="#e58139"] ;
676 -> 677 ;
678 [label=<Ateco &le; 0.236<br/>gini = 0.008<br/>samples = 0.0%>, fillcolor="#eca16b"] ;
676 -> 678 ;
679 [label=<gini = 0.0<br/>samples = 0.0%>, fillcolor="#e58139"] ;
678 -> 679 ;
680 [label=<gini = 0.0<br/>samples = 0.0%>, fillcolor="#e58139"] ;
678 -> 680 ;
681 [label=<gini = 0.0<br/>samples = 0.1%>, fillcolor="#e58139"] ;
577 -> 681 ;
682 [label=<CoDitta &le; 1.332<br/>gini = 0.017<br/>samples = 0.4%>, fillcolor="#f3c6a5"] ;
552 -> 682 ;
683 [label=<CoDitta &le; -0.45<br/>gini = 0.01<br/>samples = 0.3%>, fillcolor="#eead7e"] ;
682 -> 683 ;
684 [label=<Tdoc_TD27 &le; 0.5<br/>gini = 0.018<br/>samples = 0.1%>, fillcolor="#f4cbad"] ;
683 -> 684 ;
685 [label=<CoDitta &le; -0.462<br/>gini = 0.018<br/>samples = 0.1%>, fillcolor="#f4cbad"] ;
684 -> 685 ;
686 [label=<gini = 0.0<br/>samples = 0.0%>, fillcolor="#e58139"] ;
685 -> 686 ;
687 [label=<Importo &le; 0.222<br/>gini = 0.016<br/>samples = 0.1%>, fillcolor="#f3c5a4"] ;
685 -> 687 ;
688 [label=<Importo &le; -0.033<br/>gini = 0.015<br/>samples = 0.1%>, fillcolor="#f2c19d"] ;
687 -> 688 ;
689 [label=<gini = 0.0<br/>samples = 0.0%>, fillcolor="#e58139"] ;
688 -> 689 ;
690 [label=<Importo &le; -0.024<br/>gini = 0.016<br/>samples = 0.1%>, fillcolor="#f3c3a1"] ;
688 -> 690 ;
691 [label=<Importo &le; -0.027<br/>gini = 0.016<br/>samples = 0.0%>, fillcolor="#f2c29f"] ;
690 -> 691 ;
692 [label=<Importo &le; -0.028<br/>gini = 0.017<br/>samples = 0.0%>, fillcolor="#f3c6a6"] ;
691 -> 692 ;
693 [label=<Importo &le; -0.029<br/>gini = 0.015<br/>samples = 0.0%>, fillcolor="#f2c19e"] ;
692 -> 693 ;
694 [label=<Importo &le; -0.03<br/>gini = 0.017<br/>samples = 0.0%>, fillcolor="#f3c7a6"] ;
693 -> 694 ;
695 [label=<Importo &le; -0.031<br/>gini = 0.012<br/>samples = 0.0%>, fillcolor="#f0b58b"] ;
694 -> 695 ;
696 [label=<gini = 0.015<br/>samples = 0.0%>, fillcolor="#f2bf9a"] ;
695 -> 696 ;
697 [label=<gini = 0.0<br/>samples = 0.0%>, fillcolor="#e58139"] ;
695 -> 697 ;
698 [label=<gini = 0.012<br/>samples = 0.0%>, fillcolor="#f0b58b"] ;
694 -> 698 ;
699 [label=<gini = 0.0<br/>samples = 0.0%>, fillcolor="#e58139"] ;
693 -> 699 ;
700 [label=<gini = 0.0<br/>samples = 0.0%>, fillcolor="#e58139"] ;
692 -> 700 ;
701 [label=<gini = 0.0<br/>samples = 0.0%>, fillcolor="#e58139"] ;
691 -> 701 ;
702 [label=<Importo &le; 0.158<br/>gini = 0.014<br/>samples = 0.0%>, fillcolor="#f1bd97"] ;
690 -> 702 ;
703 [label=<Importo &le; 0.107<br/>gini = 0.015<br/>samples = 0.0%>, fillcolor="#f2c09c"] ;
702 -> 703 ;
704 [label=<Importo &le; -0.024<br/>gini = 0.014<br/>samples = 0.0%>, fillcolor="#f1bd98"] ;
703 -> 704 ;
705 [label=<gini = 0.0<br/>samples = 0.0%>, fillcolor="#e58139"] ;
704 -> 705 ;
706 [label=<Importo &le; -0.022<br/>gini = 0.015<br/>samples = 0.0%>, fillcolor="#f2c09b"] ;
704 -> 706 ;
707 [label=<gini = 0.0<br/>samples = 0.0%>, fillcolor="#e58139"] ;
706 -> 707 ;
708 [label=<Importo &le; -0.014<br/>gini = 0.014<br/>samples = 0.0%>, fillcolor="#f1bc96"] ;
706 -> 708 ;
709 [label=<gini = 0.0<br/>samples = 0.0%>, fillcolor="#e58139"] ;
708 -> 709 ;
710 [label=<Importo &le; 0.051<br/>gini = 0.015<br/>samples = 0.0%>, fillcolor="#f2bf9a"] ;
708 -> 710 ;
711 [label=<Importo &le; 0.04<br/>gini = 0.017<br/>samples = 0.0%>, fillcolor="#f3c6a6"] ;
710 -> 711 ;
712 [label=<Importo &le; 0.018<br/>gini = 0.016<br/>samples = 0.0%>, fillcolor="#f3c3a0"] ;
711 -> 712 ;
713 [label=<Importo &le; 0.012<br/>gini = 0.017<br/>samples = 0.0%>, fillcolor="#f3c7a6"] ;
712 -> 713 ;
714 [label=<Importo &le; -0.01<br/>gini = 0.016<br/>samples = 0.0%>, fillcolor="#f2c29f"] ;
713 -> 714 ;
715 [label=<gini = 0.0<br/>samples = 0.0%>, fillcolor="#e58139"] ;
714 -> 715 ;
716 [label=<Importo &le; 0.004<br/>gini = 0.014<br/>samples = 0.0%>, fillcolor="#f1ba92"] ;
714 -> 716 ;
717 [label=<gini = 0.0<br/>samples = 0.0%>, fillcolor="#e58139"] ;
716 -> 717 ;
718 [label=<gini = 0.017<br/>samples = 0.0%>, fillcolor="#f3c7a6"] ;
716 -> 718 ;
719 [label=<gini = 0.0<br/>samples = 0.0%>, fillcolor="#e58139"] ;
713 -> 719 ;
720 [label=<gini = 0.0<br/>samples = 0.0%>, fillcolor="#e58139"] ;
712 -> 720 ;
721 [label=<gini = 0.0<br/>samples = 0.0%>, fillcolor="#e58139"] ;
711 -> 721 ;
722 [label=<Importo &le; 0.091<br/>gini = 0.012<br/>samples = 0.0%>, fillcolor="#efb185"] ;
710 -> 722 ;
723 [label=<Importo &le; 0.087<br/>gini = 0.013<br/>samples = 0.0%>, fillcolor="#f0b78e"] ;
722 -> 723 ;
724 [label=<Importo &le; 0.07<br/>gini = 0.011<br/>samples = 0.0%>, fillcolor="#efb083"] ;
723 -> 724 ;
725 [label=<Importo &le; 0.06<br/>gini = 0.013<br/>samples = 0.0%>, fillcolor="#f0b890"] ;
724 -> 725 ;
726 [label=<gini = 0.0<br/>samples = 0.0%>, fillcolor="#e58139"] ;
725 -> 726 ;
727 [label=<gini = 0.014<br/>samples = 0.0%>, fillcolor="#f1bb95"] ;
725 -> 727 ;
728 [label=<gini = 0.0<br/>samples = 0.0%>, fillcolor="#e58139"] ;
724 -> 728 ;
729 [label=<gini = 0.0<br/>samples = 0.0%>, fillcolor="#e58139"] ;
723 -> 729 ;
730 [label=<gini = 0.0<br/>samples = 0.0%>, fillcolor="#e58139"] ;
722 -> 730 ;
731 [label=<gini = 0.0<br/>samples = 0.0%>, fillcolor="#e58139"] ;
703 -> 731 ;
732 [label=<gini = 0.0<br/>samples = 0.0%>, fillcolor="#e58139"] ;
702 -> 732 ;
733 [label=<Conto &le; 0.22<br/>gini = 0.014<br/>samples = 0.0%>, fillcolor="#f1bb95"] ;
687 -> 733 ;
734 [label=<Importo &le; 0.723<br/>gini = 0.012<br/>samples = 0.0%>, fillcolor="#efb185"] ;
733 -> 734 ;
735 [label=<Importo &le; 0.667<br/>gini = 0.014<br/>samples = 0.0%>, fillcolor="#f1ba92"] ;
734 -> 735 ;
736 [label=<Importo &le; 0.256<br/>gini = 0.012<br/>samples = 0.0%>, fillcolor="#efb287"] ;
735 -> 736 ;
737 [label=<gini = 0.0<br/>samples = 0.0%>, fillcolor="#e58139"] ;
736 -> 737 ;
738 [label=<Importo &le; 0.359<br/>gini = 0.014<br/>samples = 0.0%>, fillcolor="#f1bb95"] ;
736 -> 738 ;
739 [label=<Importo &le; 0.298<br/>gini = 0.017<br/>samples = 0.0%>, fillcolor="#f3c7a6"] ;
738 -> 739 ;
740 [label=<gini = 0.017<br/>samples = 0.0%>, fillcolor="#f3c7a6"] ;
739 -> 740 ;
741 [label=<gini = 0.017<br/>samples = 0.0%>, fillcolor="#f3c7a6"] ;
739 -> 741 ;
742 [label=<Importo &le; 0.485<br/>gini = 0.009<br/>samples = 0.0%>, fillcolor="#eda876"] ;
738 -> 742 ;
743 [label=<gini = 0.0<br/>samples = 0.0%>, fillcolor="#e58139"] ;
742 -> 743 ;
744 [label=<Importo &le; 0.541<br/>gini = 0.015<br/>samples = 0.0%>, fillcolor="#f2bf9a"] ;
742 -> 744 ;
745 [label=<gini = 0.0<br/>samples = 0.0%>, fillcolor="#e58139"] ;
744 -> 745 ;
746 [label=<gini = 0.0<br/>samples = 0.0%>, fillcolor="#e58139"] ;
744 -> 746 ;
747 [label=<gini = 0.0<br/>samples = 0.0%>, fillcolor="#e58139"] ;
735 -> 747 ;
748 [label=<gini = 0.0<br/>samples = 0.0%>, fillcolor="#e58139"] ;
734 -> 748 ;
749 [label=<gini = 0.0<br/>samples = 0.0%>, fillcolor="#e58139"] ;
733 -> 749 ;
750 [label=<gini = 0.0<br/>samples = 0.0%>, fillcolor="#e58139"] ;
684 -> 750 ;
751 [label=<Ateco &le; -0.153<br/>gini = 0.0<br/>samples = 0.2%>, fillcolor="#e5833b"] ;
683 -> 751 ;
752 [label=<Importo &le; 0.63<br/>gini = 0.015<br/>samples = 0.0%>, fillcolor="#f2bf9a"] ;
751 -> 752 ;
753 [label=<gini = 0.0<br/>samples = 0.0%>, fillcolor="#e58139"] ;
752 -> 753 ;
754 [label=<gini = 0.0<br/>samples = 0.0%>, fillcolor="#e58139"] ;
752 -> 754 ;
755 [label=<gini = 0.0<br/>samples = 0.2%>, fillcolor="#e58139"] ;
751 -> 755 ;
756 [label=<Caus &le; 0.49<br/>gini = 0.011<br/>samples = 0.1%>, fillcolor="#efb082"] ;
682 -> 756 ;
757 [label=<Ateco &le; 0.031<br/>gini = 0.017<br/>samples = 0.0%>, fillcolor="#f3c7a6"] ;
756 -> 757 ;
758 [label=<gini = 0.0<br/>samples = 0.0%>, fillcolor="#e58139"] ;
757 -> 758 ;
759 [label=<Importo &le; 0.443<br/>gini = 0.017<br/>samples = 0.0%>, fillcolor="#f3c7a6"] ;
757 -> 759 ;
760 [label=<gini = 0.0<br/>samples = 0.0%>, fillcolor="#e58139"] ;
759 -> 760 ;
761 [label=<Importo &le; 1.492<br/>gini = 0.011<br/>samples = 0.0%>, fillcolor="#eead7f"] ;
759 -> 761 ;
762 [label=<gini = 0.0<br/>samples = 0.0%>, fillcolor="#e58139"] ;
761 -> 762 ;
763 [label=<Importo &le; 3.171<br/>gini = 0.017<br/>samples = 0.0%>, fillcolor="#f3c7a6"] ;
761 -> 763 ;
764 [label=<gini = 0.0<br/>samples = 0.0%>, fillcolor="#e58139"] ;
763 -> 764 ;
765 [label=<gini = 0.0<br/>samples = 0.0%>, fillcolor="#e58139"] ;
763 -> 765 ;
766 [label=<Importo &le; 0.639<br/>gini = 0.001<br/>samples = 0.1%>, fillcolor="#e6853f"] ;
756 -> 766 ;
767 [label=<Importo &le; 0.569<br/>gini = 0.004<br/>samples = 0.0%>, fillcolor="#e89051"] ;
766 -> 767 ;
768 [label=<gini = 0.0<br/>samples = 0.0%>, fillcolor="#e58139"] ;
767 -> 768 ;
769 [label=<Conto &le; 0.011<br/>gini = 0.012<br/>samples = 0.0%>, fillcolor="#f0b58b"] ;
767 -> 769 ;
770 [label=<gini = 0.015<br/>samples = 0.0%>, fillcolor="#f2bf9a"] ;
769 -> 770 ;
771 [label=<gini = 0.0<br/>samples = 0.0%>, fillcolor="#e58139"] ;
769 -> 771 ;
772 [label=<gini = 0.0<br/>samples = 0.1%>, fillcolor="#e58139"] ;
766 -> 772 ;
773 [label=<TIva &le; 0.178<br/>gini = 0.004<br/>samples = 0.4%>, fillcolor="#e99356"] ;
551 -> 773 ;
774 [label=<gini = 0.0<br/>samples = 0.4%>, fillcolor="#e58139"] ;
773 -> 774 ;
775 [label=<gini = 0.0<br/>samples = 0.0%>, fillcolor="#e58139"] ;
773 -> 775 ;
776 [label=<TIva &le; 0.178<br/>gini = 0.002<br/>samples = 0.9%>, fillcolor="#e78a48"] ;
550 -> 776 ;
777 [label=<CoDitta &le; -0.092<br/>gini = 0.001<br/>samples = 0.9%>, fillcolor="#e6853f"] ;
776 -> 777 ;
778 [label=<CoDitta &le; -0.208<br/>gini = 0.007<br/>samples = 0.1%>, fillcolor="#eb9d65"] ;
777 -> 778 ;
779 [label=<CoDitta &le; -0.465<br/>gini = 0.003<br/>samples = 0.1%>, fillcolor="#e88e4d"] ;
778 -> 779 ;
780 [label=<Importo &le; 0.071<br/>gini = 0.009<br/>samples = 0.0%>, fillcolor="#eda876"] ;
779 -> 780 ;
781 [label=<gini = 0.0<br/>samples = 0.0%>, fillcolor="#e58139"] ;
780 -> 781 ;
782 [label=<Importo &le; 0.081<br/>gini = 0.015<br/>samples = 0.0%>, fillcolor="#f2bf9a"] ;
780 -> 782 ;
783 [label=<gini = 0.0<br/>samples = 0.0%>, fillcolor="#e58139"] ;
782 -> 783 ;
784 [label=<gini = 0.0<br/>samples = 0.0%>, fillcolor="#e58139"] ;
782 -> 784 ;
785 [label=<Ateco &le; -0.265<br/>gini = 0.002<br/>samples = 0.1%>, fillcolor="#e78a48"] ;
779 -> 785 ;
786 [label=<Importo &le; 0.046<br/>gini = 0.005<br/>samples = 0.0%>, fillcolor="#e99457"] ;
785 -> 786 ;
787 [label=<gini = 0.0<br/>samples = 0.0%>, fillcolor="#e58139"] ;
786 -> 787 ;
788 [label=<Importo &le; 0.057<br/>gini = 0.006<br/>samples = 0.0%>, fillcolor="#ea9b62"] ;
786 -> 788 ;
789 [label=<gini = 0.0<br/>samples = 0.0%>, fillcolor="#e58139"] ;
788 -> 789 ;
790 [label=<Importo &le; 0.33<br/>gini = 0.003<br/>samples = 0.0%>, fillcolor="#e89050"] ;
788 -> 790 ;
791 [label=<gini = 0.0<br/>samples = 0.0%>, fillcolor="#e58139"] ;
790 -> 791 ;
792 [label=<Importo &le; 0.374<br/>gini = 0.007<br/>samples = 0.0%>, fillcolor="#eb9c64"] ;
790 -> 792 ;
793 [label=<gini = 0.0<br/>samples = 0.0%>, fillcolor="#e58139"] ;
792 -> 793 ;
794 [label=<gini = 0.0<br/>samples = 0.0%>, fillcolor="#e58139"] ;
792 -> 794 ;
795 [label=<gini = 0.0<br/>samples = 0.0%>, fillcolor="#e58139"] ;
785 -> 795 ;
796 [label=<Importo &le; 0.073<br/>gini = 0.012<br/>samples = 0.0%>, fillcolor="#efb388"] ;
778 -> 796 ;
797 [label=<Importo &le; -0.034<br/>gini = 0.009<br/>samples = 0.0%>, fillcolor="#eda774"] ;
796 -> 797 ;
798 [label=<Importo &le; -0.035<br/>gini = 0.017<br/>samples = 0.0%>, fillcolor="#f3c7a6"] ;
797 -> 798 ;
799 [label=<gini = 0.015<br/>samples = 0.0%>, fillcolor="#f2bf9a"] ;
798 -> 799 ;
800 [label=<gini = 0.0<br/>samples = 0.0%>, fillcolor="#e58139"] ;
798 -> 800 ;
801 [label=<Importo &le; -0.016<br/>gini = 0.007<br/>samples = 0.0%>, fillcolor="#eb9c64"] ;
797 -> 801 ;
802 [label=<Importo &le; -0.022<br/>gini = 0.003<br/>samples = 0.0%>, fillcolor="#e78d4c"] ;
801 -> 802 ;
803 [label=<gini = 0.0<br/>samples = 0.0%>, fillcolor="#e58139"] ;
802 -> 803 ;
804 [label=<Importo &le; -0.021<br/>gini = 0.007<br/>samples = 0.0%>, fillcolor="#eb9f69"] ;
802 -> 804 ;
805 [label=<gini = 0.0<br/>samples = 0.0%>, fillcolor="#e58139"] ;
804 -> 805 ;
806 [label=<gini = 0.0<br/>samples = 0.0%>, fillcolor="#e58139"] ;
804 -> 806 ;
807 [label=<Importo &le; -0.012<br/>gini = 0.016<br/>samples = 0.0%>, fillcolor="#f3c4a2"] ;
801 -> 807 ;
808 [label=<gini = 0.015<br/>samples = 0.0%>, fillcolor="#f2bf9a"] ;
807 -> 808 ;
809 [label=<gini = 0.0<br/>samples = 0.0%>, fillcolor="#e58139"] ;
807 -> 809 ;
810 [label=<gini = 0.0<br/>samples = 0.0%>, fillcolor="#e58139"] ;
796 -> 810 ;
811 [label=<Importo &le; 1.746<br/>gini = 0.0<br/>samples = 0.8%>, fillcolor="#e5823a"] ;
777 -> 811 ;
812 [label=<gini = 0.0<br/>samples = 0.8%>, fillcolor="#e58139"] ;
811 -> 812 ;
813 [label=<Importo &le; 3.662<br/>gini = 0.015<br/>samples = 0.0%>, fillcolor="#f2bf9a"] ;
811 -> 813 ;
814 [label=<Importo &le; 1.889<br/>gini = 0.015<br/>samples = 0.0%>, fillcolor="#f2bf9a"] ;
813 -> 814 ;
815 [label=<gini = 0.0<br/>samples = 0.0%>, fillcolor="#e58139"] ;
814 -> 815 ;
816 [label=<Importo &le; 2.563<br/>gini = 0.017<br/>samples = 0.0%>, fillcolor="#f3c7a6"] ;
814 -> 816 ;
817 [label=<gini = 0.0<br/>samples = 0.0%>, fillcolor="#e58139"] ;
816 -> 817 ;
818 [label=<gini = 0.0<br/>samples = 0.0%>, fillcolor="#e58139"] ;
816 -> 818 ;
819 [label=<gini = 0.0<br/>samples = 0.0%>, fillcolor="#e58139"] ;
813 -> 819 ;
820 [label=<CoDitta &le; 1.127<br/>gini = 0.015<br/>samples = 0.0%>, fillcolor="#f2c19e"] ;
776 -> 820 ;
821 [label=<Importo &le; 0.578<br/>gini = 0.011<br/>samples = 0.0%>, fillcolor="#efb083"] ;
820 -> 821 ;
822 [label=<CoDitta &le; -0.45<br/>gini = 0.007<br/>samples = 0.0%>, fillcolor="#eb9d66"] ;
821 -> 822 ;
823 [label=<gini = 0.0<br/>samples = 0.0%>, fillcolor="#e58139"] ;
822 -> 823 ;
824 [label=<TIva &le; 1.165<br/>gini = 0.004<br/>samples = 0.0%>, fillcolor="#e89051"] ;
822 -> 824 ;
825 [label=<gini = 0.0<br/>samples = 0.0%>, fillcolor="#e58139"] ;
824 -> 825 ;
826 [label=<ContoStd &le; -0.302<br/>gini = 0.017<br/>samples = 0.0%>, fillcolor="#f3c7a6"] ;
824 -> 826 ;
827 [label=<gini = 0.0<br/>samples = 0.0%>, fillcolor="#e58139"] ;
826 -> 827 ;
828 [label=<gini = 0.0<br/>samples = 0.0%>, fillcolor="#e58139"] ;
826 -> 828 ;
829 [label=<Conto &le; -1.52<br/>gini = 0.017<br/>samples = 0.0%>, fillcolor="#f3c7a6"] ;
821 -> 829 ;
830 [label=<gini = 0.0<br/>samples = 0.0%>, fillcolor="#e58139"] ;
829 -> 830 ;
831 [label=<gini = 0.0<br/>samples = 0.0%>, fillcolor="#e58139"] ;
829 -> 831 ;
832 [label=<gini = 0.0<br/>samples = 0.0%>, fillcolor="#e58139"] ;
820 -> 832 ;
833 [label=<ContoStd &le; 0.707<br/>gini = 0.014<br/>samples = 2.9%>, fillcolor="#f1ba92"] ;
549 -> 833 ;
834 [label=<Iva_N3 &le; 0.5<br/>gini = 0.007<br/>samples = 2.4%>, fillcolor="#eba069"] ;
833 -> 834 ;
835 [label=<Iva_N3.4 &le; 0.5<br/>gini = 0.006<br/>samples = 2.3%>, fillcolor="#ea9a60"] ;
834 -> 835 ;
836 [label=<Iva_N5 &le; 0.5<br/>gini = 0.005<br/>samples = 2.3%>, fillcolor="#e99659"] ;
835 -> 836 ;
837 [label=<ContoStd &le; 0.585<br/>gini = 0.004<br/>samples = 2.3%>, fillcolor="#e99356"] ;
836 -> 837 ;
838 [label=<Ateco &le; 0.019<br/>gini = 0.002<br/>samples = 2.0%>, fillcolor="#e78b48"] ;
837 -> 838 ;
839 [label=<CoDitta &le; -0.464<br/>gini = 0.001<br/>samples = 1.8%>, fillcolor="#e68540"] ;
838 -> 839 ;
840 [label=<CoDitta &le; -0.466<br/>gini = 0.018<br/>samples = 0.0%>, fillcolor="#f5ccaf"] ;
839 -> 840 ;
841 [label=<Ateco &le; -1.216<br/>gini = 0.008<br/>samples = 0.0%>, fillcolor="#eca26c"] ;
840 -> 841 ;
842 [label=<ContoStd &le; 0.573<br/>gini = 0.015<br/>samples = 0.0%>, fillcolor="#f2bf9a"] ;
841 -> 842 ;
843 [label=<gini = 0.0<br/>samples = 0.0%>, fillcolor="#e58139"] ;
842 -> 843 ;
844 [label=<gini = 0.0<br/>samples = 0.0%>, fillcolor="#e58139"] ;
842 -> 844 ;
845 [label=<gini = 0.0<br/>samples = 0.0%>, fillcolor="#e58139"] ;
841 -> 845 ;
846 [label=<gini = 0.0<br/>samples = 0.0%>, fillcolor="#e58139"] ;
840 -> 846 ;
847 [label=<Ateco &le; -1.813<br/>gini = 0.0<br/>samples = 1.8%>, fillcolor="#e5823b"] ;
839 -> 847 ;
848 [label=<gini = 0.0<br/>samples = 0.0%>, fillcolor="#e58139"] ;
847 -> 848 ;
849 [label=<Importo &le; -0.037<br/>gini = 0.0<br/>samples = 1.8%>, fillcolor="#e5823a"] ;
847 -> 849 ;
850 [label=<CoDitta &le; -0.394<br/>gini = 0.017<br/>samples = 0.0%>, fillcolor="#f3c7a6"] ;
849 -> 850 ;
851 [label=<gini = 0.0<br/>samples = 0.0%>, fillcolor="#e58139"] ;
850 -> 851 ;
852 [label=<gini = 0.0<br/>samples = 0.0%>, fillcolor="#e58139"] ;
850 -> 852 ;
853 [label=<ContoStd &le; 0.583<br/>gini = 0.0<br/>samples = 1.8%>, fillcolor="#e5823a"] ;
849 -> 853 ;
854 [label=<Iva_N6.1 &le; 0.5<br/>gini = 0.0<br/>samples = 1.8%>, fillcolor="#e5813a"] ;
853 -> 854 ;
855 [label=<CoDitta &le; -0.458<br/>gini = 0.0<br/>samples = 0.6%>, fillcolor="#e5823b"] ;
854 -> 855 ;
856 [label=<gini = 0.0<br/>samples = 0.6%>, fillcolor="#e58139"] ;
855 -> 856 ;
857 [label=<Ateco &le; -0.027<br/>gini = 0.004<br/>samples = 0.0%>, fillcolor="#e89253"] ;
855 -> 857 ;
858 [label=<gini = 0.0<br/>samples = 0.0%>, fillcolor="#e58139"] ;
857 -> 858 ;
859 [label=<gini = 0.0<br/>samples = 0.0%>, fillcolor="#e58139"] ;
857 -> 859 ;
860 [label=<gini = 0.0<br/>samples = 1.2%>, fillcolor="#e58139"] ;
854 -> 860 ;
861 [label=<CoDitta &le; -0.248<br/>gini = 0.008<br/>samples = 0.0%>, fillcolor="#eca36f"] ;
853 -> 861 ;
862 [label=<gini = 0.0<br/>samples = 0.0%>, fillcolor="#e58139"] ;
861 -> 862 ;
863 [label=<gini = 0.0<br/>samples = 0.0%>, fillcolor="#e58139"] ;
861 -> 863 ;
864 [label=<Conto &le; 0.582<br/>gini = 0.015<br/>samples = 0.1%>, fillcolor="#f2c19e"] ;
838 -> 864 ;
865 [label=<Iva_N6.6 &le; 0.5<br/>gini = 0.014<br/>samples = 0.1%>, fillcolor="#f1bc95"] ;
864 -> 865 ;
866 [label=<Iva_N6.1 &le; 0.5<br/>gini = 0.003<br/>samples = 0.0%>, fillcolor="#e78d4b"] ;
865 -> 866 ;
867 [label=<gini = 0.0<br/>samples = 0.0%>, fillcolor="#e58139"] ;
866 -> 867 ;
868 [label=<gini = 0.0<br/>samples = 0.0%>, fillcolor="#e58139"] ;
866 -> 868 ;
869 [label=<gini = 0.0<br/>samples = 0.0%>, fillcolor="#e58139"] ;
865 -> 869 ;
870 [label=<Importo &le; 0.051<br/>gini = 0.001<br/>samples = 0.1%>, fillcolor="#e68540"] ;
864 -> 870 ;
871 [label=<gini = 0.0<br/>samples = 0.1%>, fillcolor="#e58139"] ;
870 -> 871 ;
872 [label=<Tdoc_TD24 &le; 0.5<br/>gini = 0.012<br/>samples = 0.0%>, fillcolor="#f0b58b"] ;
870 -> 872 ;
873 [label=<gini = 0.0<br/>samples = 0.0%>, fillcolor="#e58139"] ;
872 -> 873 ;
874 [label=<gini = 0.0<br/>samples = 0.0%>, fillcolor="#e58139"] ;
872 -> 874 ;
875 [label=<CoDitta &le; -0.459<br/>gini = 0.014<br/>samples = 0.3%>, fillcolor="#f1bd98"] ;
837 -> 875 ;
876 [label=<Ateco &le; -0.211<br/>gini = 0.012<br/>samples = 0.0%>, fillcolor="#efb185"] ;
875 -> 876 ;
877 [label=<ContoStd &le; 0.646<br/>gini = 0.005<br/>samples = 0.0%>, fillcolor="#e99659"] ;
876 -> 877 ;
878 [label=<gini = 0.0<br/>samples = 0.0%>, fillcolor="#e58139"] ;
877 -> 878 ;
879 [label=<Importo &le; 0.354<br/>gini = 0.003<br/>samples = 0.0%>, fillcolor="#e88f4f"] ;
877 -> 879 ;
880 [label=<Ateco &le; -0.265<br/>gini = 0.015<br/>samples = 0.0%>, fillcolor="#f2bf9a"] ;
879 -> 880 ;
881 [label=<Tdoc_TD24 &le; 0.5<br/>gini = 0.015<br/>samples = 0.0%>, fillcolor="#f2bf9a"] ;
880 -> 881 ;
882 [label=<Importo &le; 0.275<br/>gini = 0.017<br/>samples = 0.0%>, fillcolor="#f3c7a6"] ;
881 -> 882 ;
883 [label=<gini = 0.0<br/>samples = 0.0%>, fillcolor="#e58139"] ;
882 -> 883 ;
884 [label=<gini = 0.0<br/>samples = 0.0%>, fillcolor="#e58139"] ;
882 -> 884 ;
885 [label=<gini = 0.0<br/>samples = 0.0%>, fillcolor="#e58139"] ;
881 -> 885 ;
886 [label=<gini = 0.0<br/>samples = 0.0%>, fillcolor="#e58139"] ;
880 -> 886 ;
887 [label=<gini = 0.0<br/>samples = 0.0%>, fillcolor="#e58139"] ;
879 -> 887 ;
888 [label=<Ateco &le; 0.605<br/>gini = 0.017<br/>samples = 0.0%>, fillcolor="#f3c7a6"] ;
876 -> 888 ;
889 [label=<gini = 0.0<br/>samples = 0.0%>, fillcolor="#e58139"] ;
888 -> 889 ;
890 [label=<Conto &le; 0.587<br/>gini = 0.017<br/>samples = 0.0%>, fillcolor="#f3c7a6"] ;
888 -> 890 ;
891 [label=<gini = 0.0<br/>samples = 0.0%>, fillcolor="#e58139"] ;
890 -> 891 ;
892 [label=<gini = 0.0<br/>samples = 0.0%>, fillcolor="#e58139"] ;
890 -> 892 ;
893 [label=<Iva_N6.3 &le; 0.5<br/>gini = 0.011<br/>samples = 0.3%>, fillcolor="#eeae80"] ;
875 -> 893 ;
894 [label=<Iva_N6.9 &le; 0.5<br/>gini = 0.014<br/>samples = 0.0%>, fillcolor="#f1bd97"] ;
893 -> 894 ;
895 [label=<Conto &le; 0.585<br/>gini = 0.007<br/>samples = 0.0%>, fillcolor="#eb9f69"] ;
894 -> 895 ;
896 [label=<ContoStd &le; 0.585<br/>gini = 0.021<br/>samples = 0.0%>, fillcolor="#f7d8c2"] ;
895 -> 896 ;
897 [label=<ContoStd &le; 0.585<br/>gini = 0.017<br/>samples = 0.0%>, fillcolor="#f3c7a6"] ;
896 -> 897 ;
898 [label=<gini = 0.0<br/>samples = 0.0%>, fillcolor="#e58139"] ;
897 -> 898 ;
899 [label=<gini = 0.0<br/>samples = 0.0%>, fillcolor="#e58139"] ;
897 -> 899 ;
900 [label=<gini = 0.0<br/>samples = 0.0%>, fillcolor="#e58139"] ;
896 -> 900 ;
901 [label=<gini = 0.0<br/>samples = 0.0%>, fillcolor="#e58139"] ;
895 -> 901 ;
902 [label=<gini = 0.0<br/>samples = 0.0%>, fillcolor="#e58139"] ;
894 -> 902 ;
903 [label=<Ateco &le; -0.268<br/>gini = 0.007<br/>samples = 0.2%>, fillcolor="#eba069"] ;
893 -> 903 ;
904 [label=<CoDitta &le; -0.347<br/>gini = 0.013<br/>samples = 0.1%>, fillcolor="#f1b991"] ;
903 -> 904 ;
905 [label=<CoDitta &le; -0.451<br/>gini = 0.008<br/>samples = 0.1%>, fillcolor="#eca16b"] ;
904 -> 905 ;
906 [label=<gini = 0.0<br/>samples = 0.0%>, fillcolor="#e58139"] ;
905 -> 906 ;
907 [label=<CoDitta &le; -0.45<br/>gini = 0.011<br/>samples = 0.0%>, fillcolor="#efb082"] ;
905 -> 907 ;
908 [label=<gini = 0.0<br/>samples = 0.0%>, fillcolor="#e58139"] ;
907 -> 908 ;
909 [label=<Caus &le; 3.878<br/>gini = 0.005<br/>samples = 0.0%>, fillcolor="#e99457"] ;
907 -> 909 ;
910 [label=<gini = 0.0<br/>samples = 0.0%>, fillcolor="#e58139"] ;
909 -> 910 ;
911 [label=<Importo &le; -0.026<br/>gini = 0.011<br/>samples = 0.0%>, fillcolor="#efb083"] ;
909 -> 911 ;
912 [label=<gini = 0.0<br/>samples = 0.0%>, fillcolor="#e58139"] ;
911 -> 912 ;
913 [label=<Importo &le; 0.064<br/>gini = 0.009<br/>samples = 0.0%>, fillcolor="#eca572"] ;
911 -> 913 ;
914 [label=<Caus &le; 7.811<br/>gini = 0.015<br/>samples = 0.0%>, fillcolor="#f2bf9a"] ;
913 -> 914 ;
915 [label=<CoDitta &le; -0.428<br/>gini = 0.015<br/>samples = 0.0%>, fillcolor="#f2bf9a"] ;
914 -> 915 ;
916 [label=<gini = 0.0<br/>samples = 0.0%>, fillcolor="#e58139"] ;
915 -> 916 ;
917 [label=<gini = 0.0<br/>samples = 0.0%>, fillcolor="#e58139"] ;
915 -> 917 ;
918 [label=<gini = 0.0<br/>samples = 0.0%>, fillcolor="#e58139"] ;
914 -> 918 ;
919 [label=<gini = 0.0<br/>samples = 0.0%>, fillcolor="#e58139"] ;
913 -> 919 ;
920 [label=<Importo &le; -0.003<br/>gini = 0.016<br/>samples = 0.0%>, fillcolor="#f3c6a5"] ;
904 -> 920 ;
921 [label=<gini = 0.0<br/>samples = 0.0%>, fillcolor="#e58139"] ;
920 -> 921 ;
922 [label=<CoDitta &le; -0.196<br/>gini = 0.01<br/>samples = 0.0%>, fillcolor="#eeab7b"] ;
920 -> 922 ;
923 [label=<CoDitta &le; -0.26<br/>gini = 0.006<br/>samples = 0.0%>, fillcolor="#ea985d"] ;
922 -> 923 ;
924 [label=<Importo &le; 0.135<br/>gini = 0.016<br/>samples = 0.0%>, fillcolor="#f3c4a2"] ;
923 -> 924 ;
925 [label=<gini = 0.0<br/>samples = 0.0%>, fillcolor="#e58139"] ;
924 -> 925 ;
926 [label=<gini = 0.0<br/>samples = 0.0%>, fillcolor="#e58139"] ;
924 -> 926 ;
927 [label=<gini = 0.0<br/>samples = 0.0%>, fillcolor="#e58139"] ;
923 -> 927 ;
928 [label=<CoDitta &le; 0.391<br/>gini = 0.016<br/>samples = 0.0%>, fillcolor="#f3c4a2"] ;
922 -> 928 ;
929 [label=<gini = 0.0<br/>samples = 0.0%>, fillcolor="#e58139"] ;
928 -> 929 ;
930 [label=<Importo &le; 0.122<br/>gini = 0.015<br/>samples = 0.0%>, fillcolor="#f2bf9a"] ;
928 -> 930 ;
931 [label=<gini = 0.0<br/>samples = 0.0%>, fillcolor="#e58139"] ;
930 -> 931 ;
932 [label=<gini = 0.0<br/>samples = 0.0%>, fillcolor="#e58139"] ;
930 -> 932 ;
933 [label=<CoDitta &le; -0.285<br/>gini = 0.0<br/>samples = 0.1%>, fillcolor="#e5833c"] ;
903 -> 933 ;
934 [label=<gini = 0.0<br/>samples = 0.1%>, fillcolor="#e58139"] ;
933 -> 934 ;
935 [label=<Importo &le; 0.116<br/>gini = 0.002<br/>samples = 0.0%>, fillcolor="#e78946"] ;
933 -> 935 ;
936 [label=<gini = 0.0<br/>samples = 0.0%>, fillcolor="#e58139"] ;
935 -> 936 ;
937 [label=<Importo &le; 0.166<br/>gini = 0.007<br/>samples = 0.0%>, fillcolor="#eb9f69"] ;
935 -> 937 ;
938 [label=<gini = 0.0<br/>samples = 0.0%>, fillcolor="#e58139"] ;
937 -> 938 ;
939 [label=<gini = 0.0<br/>samples = 0.0%>, fillcolor="#e58139"] ;
937 -> 939 ;
940 [label=<CoDitta &le; -0.405<br/>gini = 0.014<br/>samples = 0.0%>, fillcolor="#f1ba92"] ;
836 -> 940 ;
941 [label=<Ateco &le; -0.1<br/>gini = 0.024<br/>samples = 0.0%>, fillcolor="#fae5d6"] ;
940 -> 941 ;
942 [label=<gini = 0.0<br/>samples = 0.0%>, fillcolor="#e58139"] ;
941 -> 942 ;
943 [label=<Importo &le; -0.019<br/>gini = 0.021<br/>samples = 0.0%>, fillcolor="#f7dac5"] ;
941 -> 943 ;
944 [label=<Importo &le; -0.029<br/>gini = 0.015<br/>samples = 0.0%>, fillcolor="#f2bf9a"] ;
943 -> 944 ;
945 [label=<gini = 0.0<br/>samples = 0.0%>, fillcolor="#e58139"] ;
944 -> 945 ;
946 [label=<gini = 0.0<br/>samples = 0.0%>, fillcolor="#e58139"] ;
944 -> 946 ;
947 [label=<gini = 0.0<br/>samples = 0.0%>, fillcolor="#e58139"] ;
943 -> 947 ;
948 [label=<Importo &le; 0.921<br/>gini = 0.004<br/>samples = 0.0%>, fillcolor="#e89051"] ;
940 -> 948 ;
949 [label=<gini = 0.0<br/>samples = 0.0%>, fillcolor="#e58139"] ;
948 -> 949 ;
950 [label=<gini = 0.0<br/>samples = 0.0%>, fillcolor="#e58139"] ;
948 -> 950 ;
951 [label=<Importo &le; -0.018<br/>gini = 0.017<br/>samples = 0.0%>, fillcolor="#f4caab"] ;
835 -> 951 ;
952 [label=<Ateco &le; 0.008<br/>gini = 0.007<br/>samples = 0.0%>, fillcolor="#eb9f69"] ;
951 -> 952 ;
953 [label=<Conto &le; 0.707<br/>gini = 0.004<br/>samples = 0.0%>, fillcolor="#e99254"] ;
952 -> 953 ;
954 [label=<Importo &le; -0.035<br/>gini = 0.017<br/>samples = 0.0%>, fillcolor="#f3c7a6"] ;
953 -> 954 ;
955 [label=<gini = 0.0<br/>samples = 0.0%>, fillcolor="#e58139"] ;
954 -> 955 ;
956 [label=<gini = 0.0<br/>samples = 0.0%>, fillcolor="#e58139"] ;
954 -> 956 ;
957 [label=<gini = 0.0<br/>samples = 0.0%>, fillcolor="#e58139"] ;
953 -> 957 ;
958 [label=<gini = 0.0<br/>samples = 0.0%>, fillcolor="#e58139"] ;
952 -> 958 ;
959 [label=<Conto &le; 0.707<br/>gini = 0.01<br/>samples = 0.0%>, fillcolor="#eeab7a"] ;
951 -> 959 ;
960 [label=<Importo &le; 0.065<br/>gini = 0.007<br/>samples = 0.0%>, fillcolor="#eb9d66"] ;
959 -> 960 ;
961 [label=<CoDitta &le; 0.508<br/>gini = 0.003<br/>samples = 0.0%>, fillcolor="#e78c4a"] ;
960 -> 961 ;
962 [label=<gini = 0.0<br/>samples = 0.0%>, fillcolor="#e58139"] ;
961 -> 962 ;
963 [label=<gini = 0.0<br/>samples = 0.0%>, fillcolor="#e58139"] ;
961 -> 963 ;
964 [label=<gini = 0.0<br/>samples = 0.0%>, fillcolor="#e58139"] ;
960 -> 964 ;
965 [label=<CoDitta &le; -0.323<br/>gini = 0.015<br/>samples = 0.0%>, fillcolor="#f2bf9a"] ;
959 -> 965 ;
966 [label=<gini = 0.0<br/>samples = 0.0%>, fillcolor="#e58139"] ;
965 -> 966 ;
967 [label=<gini = 0.0<br/>samples = 0.0%>, fillcolor="#e58139"] ;
965 -> 967 ;
968 [label=<CoDitta &le; -0.443<br/>gini = 0.019<br/>samples = 0.1%>, fillcolor="#f5d1b6"] ;
834 -> 968 ;
969 [label=<gini = 0.0<br/>samples = 0.0%>, fillcolor="#e58139"] ;
968 -> 969 ;
970 [label=<CoDitta &le; -0.37<br/>gini = 0.019<br/>samples = 0.0%>, fillcolor="#f5cfb3"] ;
968 -> 970 ;
971 [label=<Importo &le; 0.03<br/>gini = 0.008<br/>samples = 0.0%>, fillcolor="#eca16b"] ;
970 -> 971 ;
972 [label=<Importo &le; -0.004<br/>gini = 0.004<br/>samples = 0.0%>, fillcolor="#e99356"] ;
971 -> 972 ;
973 [label=<Importo &le; -0.008<br/>gini = 0.009<br/>samples = 0.0%>, fillcolor="#eda876"] ;
972 -> 973 ;
974 [label=<gini = 0.0<br/>samples = 0.0%>, fillcolor="#e58139"] ;
973 -> 974 ;
975 [label=<gini = 0.0<br/>samples = 0.0%>, fillcolor="#e58139"] ;
973 -> 975 ;
976 [label=<gini = 0.0<br/>samples = 0.0%>, fillcolor="#e58139"] ;
972 -> 976 ;
977 [label=<gini = 0.0<br/>samples = 0.0%>, fillcolor="#e58139"] ;
971 -> 977 ;
978 [label=<gini = 0.0<br/>samples = 0.0%>, fillcolor="#e58139"] ;
970 -> 978 ;
979 [label=<Iva_N3.4 &le; 0.5<br/>gini = 0.012<br/>samples = 0.4%>, fillcolor="#efb388"] ;
833 -> 979 ;
980 [label=<Iva_N6.3 &le; 0.5<br/>gini = 0.01<br/>samples = 0.4%>, fillcolor="#eeab7b"] ;
979 -> 980 ;
981 [label=<Tdoc_TD02 &le; 0.5<br/>gini = 0.009<br/>samples = 0.4%>, fillcolor="#eda774"] ;
980 -> 981 ;
982 [label=<Iva_N5 &le; 0.5<br/>gini = 0.007<br/>samples = 0.4%>, fillcolor="#eb9d64"] ;
981 -> 982 ;
983 [label=<Iva_N6.1 &le; 0.5<br/>gini = 0.005<br/>samples = 0.3%>, fillcolor="#ea975c"] ;
982 -> 983 ;
984 [label=<Iva_N6.9 &le; 0.5<br/>gini = 0.004<br/>samples = 0.3%>, fillcolor="#e89152"] ;
983 -> 984 ;
985 [label=<Iva_N6 &le; 0.5<br/>gini = 0.003<br/>samples = 0.3%>, fillcolor="#e78c4b"] ;
984 -> 985 ;
986 [label=<Iva_N6.4 &le; 0.5<br/>gini = 0.002<br/>samples = 0.3%>, fillcolor="#e78946"] ;
985 -> 986 ;
987 [label=<Conto &le; 0.707<br/>gini = 0.001<br/>samples = 0.3%>, fillcolor="#e68743"] ;
986 -> 987 ;
988 [label=<Conto &le; 0.707<br/>gini = 0.004<br/>samples = 0.1%>, fillcolor="#e89254"] ;
987 -> 988 ;
989 [label=<gini = 0.0<br/>samples = 0.1%>, fillcolor="#e58139"] ;
988 -> 989 ;
990 [label=<gini = 0.0<br/>samples = 0.0%>, fillcolor="#e58139"] ;
988 -> 990 ;
991 [label=<gini = 0.0<br/>samples = 0.2%>, fillcolor="#e58139"] ;
987 -> 991 ;
992 [label=<gini = 0.0<br/>samples = 0.0%>, fillcolor="#e58139"] ;
986 -> 992 ;
993 [label=<gini = 0.0<br/>samples = 0.0%>, fillcolor="#e58139"] ;
985 -> 993 ;
994 [label=<CoDitta &le; -0.46<br/>gini = 0.014<br/>samples = 0.0%>, fillcolor="#f1ba92"] ;
984 -> 994 ;
995 [label=<gini = 0.0<br/>samples = 0.0%>, fillcolor="#e58139"] ;
994 -> 995 ;
996 [label=<gini = 0.0<br/>samples = 0.0%>, fillcolor="#e58139"] ;
994 -> 996 ;
997 [label=<ContoStd &le; 1.265<br/>gini = 0.016<br/>samples = 0.0%>, fillcolor="#f3c4a2"] ;
983 -> 997 ;
998 [label=<gini = 0.0<br/>samples = 0.0%>, fillcolor="#e58139"] ;
997 -> 998 ;
999 [label=<gini = 0.0<br/>samples = 0.0%>, fillcolor="#e58139"] ;
997 -> 999 ;
1000 [label=<Ateco &le; 1.19<br/>gini = 0.012<br/>samples = 0.0%>, fillcolor="#f0b48a"] ;
982 -> 1000 ;
1001 [label=<Conto &le; 0.707<br/>gini = 0.007<br/>samples = 0.0%>, fillcolor="#eb9f69"] ;
1000 -> 1001 ;
1002 [label=<gini = 0.0<br/>samples = 0.0%>, fillcolor="#e58139"] ;
1001 -> 1002 ;
1003 [label=<gini = 0.0<br/>samples = 0.0%>, fillcolor="#e58139"] ;
1001 -> 1003 ;
1004 [label=<gini = 0.0<br/>samples = 0.0%>, fillcolor="#e58139"] ;
1000 -> 1004 ;
1005 [label=<Conto &le; 0.707<br/>gini = 0.016<br/>samples = 0.1%>, fillcolor="#f3c5a4"] ;
981 -> 1005 ;
1006 [label=<gini = 0.0<br/>samples = 0.0%>, fillcolor="#e58139"] ;
1005 -> 1006 ;
1007 [label=<gini = 0.0<br/>samples = 0.0%>, fillcolor="#e58139"] ;
1005 -> 1007 ;
1008 [label=<gini = 0.0<br/>samples = 0.0%>, fillcolor="#e58139"] ;
980 -> 1008 ;
1009 [label=<Ateco &le; -0.483<br/>gini = 0.023<br/>samples = 0.0%>, fillcolor="#f9e0ce"] ;
979 -> 1009 ;
1010 [label=<gini = 0.0<br/>samples = 0.0%>, fillcolor="#e58139"] ;
1009 -> 1010 ;
1011 [label=<Conto &le; 0.846<br/>gini = 0.018<br/>samples = 0.0%>, fillcolor="#f4cbad"] ;
1009 -> 1011 ;
1012 [label=<Ateco &le; 0.543<br/>gini = 0.015<br/>samples = 0.0%>, fillcolor="#f2c19e"] ;
1011 -> 1012 ;
1013 [label=<Importo &le; 0.244<br/>gini = 0.012<br/>samples = 0.0%>, fillcolor="#f0b58b"] ;
1012 -> 1013 ;
1014 [label=<Importo &le; 0.126<br/>gini = 0.01<br/>samples = 0.0%>, fillcolor="#eeaa7a"] ;
1013 -> 1014 ;
1015 [label=<Importo &le; 0.041<br/>gini = 0.014<br/>samples = 0.0%>, fillcolor="#f1ba92"] ;
1014 -> 1015 ;
1016 [label=<Importo &le; -0.035<br/>gini = 0.009<br/>samples = 0.0%>, fillcolor="#eda876"] ;
1015 -> 1016 ;
1017 [label=<gini = 0.0<br/>samples = 0.0%>, fillcolor="#e58139"] ;
1016 -> 1017 ;
1018 [label=<Importo &le; -0.034<br/>gini = 0.015<br/>samples = 0.0%>, fillcolor="#f2bf9a"] ;
1016 -> 1018 ;
1019 [label=<gini = 0.0<br/>samples = 0.0%>, fillcolor="#e58139"] ;
1018 -> 1019 ;
1020 [label=<gini = 0.0<br/>samples = 0.0%>, fillcolor="#e58139"] ;
1018 -> 1020 ;
1021 [label=<gini = 0.0<br/>samples = 0.0%>, fillcolor="#e58139"] ;
1015 -> 1021 ;
1022 [label=<gini = 0.0<br/>samples = 0.0%>, fillcolor="#e58139"] ;
1014 -> 1022 ;
1023 [label=<gini = 0.0<br/>samples = 0.0%>, fillcolor="#e58139"] ;
1013 -> 1023 ;
1024 [label=<gini = 0.0<br/>samples = 0.0%>, fillcolor="#e58139"] ;
1012 -> 1024 ;
1025 [label=<gini = 0.0<br/>samples = 0.0%>, fillcolor="#e58139"] ;
1011 -> 1025 ;
1026 [label=<Ateco &le; 1.785<br/>gini = 0.004<br/>samples = 1.8%>, fillcolor="#e89051"] ;
548 -> 1026 ;
1027 [label=<gini = 0.0<br/>samples = 1.7%>, fillcolor="#e58139"] ;
1026 -> 1027 ;
1028 [label=<Iva_N6.9 &le; 0.5<br/>gini = 0.025<br/>samples = 0.1%>, fillcolor="#fae8da"] ;
1026 -> 1028 ;
1029 [label=<Iva_N5 &le; 0.5<br/>gini = 0.02<br/>samples = 0.1%>, fillcolor="#f7d6bf"] ;
1028 -> 1029 ;
1030 [label=<Tdoc_TD02 &le; 0.5<br/>gini = 0.017<br/>samples = 0.1%>, fillcolor="#f4caac"] ;
1029 -> 1030 ;
1031 [label=<Iva_N6.3 &le; 0.5<br/>gini = 0.016<br/>samples = 0.1%>, fillcolor="#f2c29f"] ;
1030 -> 1031 ;
1032 [label=<TIva &le; 0.08<br/>gini = 0.014<br/>samples = 0.1%>, fillcolor="#f1bb93"] ;
1031 -> 1032 ;
1033 [label=<Iva_N3 &le; 0.5<br/>gini = 0.027<br/>samples = 0.0%>, fillcolor="#fdf3ec"] ;
1032 -> 1033 ;
1034 [label=<Iva_N3.4 &le; 0.5<br/>gini = 0.026<br/>samples = 0.0%>, fillcolor="#fbeee4"] ;
1033 -> 1034 ;
1035 [label=<Iva_N3.6 &le; 0.5<br/>gini = 0.024<br/>samples = 0.0%>, fillcolor="#fae5d7"] ;
1034 -> 1035 ;
1036 [label=<CoDitta &le; -0.414<br/>gini = 0.015<br/>samples = 0.0%>, fillcolor="#f2bf9a"] ;
1035 -> 1036 ;
1037 [label=<Conto &le; 0.222<br/>gini = 0.017<br/>samples = 0.0%>, fillcolor="#f3c7a6"] ;
1036 -> 1037 ;
1038 [label=<gini = 0.0<br/>samples = 0.0%>, fillcolor="#e58139"] ;
1037 -> 1038 ;
1039 [label=<gini = 0.0<br/>samples = 0.0%>, fillcolor="#e58139"] ;
1037 -> 1039 ;
1040 [label=<gini = 0.0<br/>samples = 0.0%>, fillcolor="#e58139"] ;
1036 -> 1040 ;
1041 [label=<Conto &le; 0.014<br/>gini = 0.015<br/>samples = 0.0%>, fillcolor="#f2bf9a"] ;
1035 -> 1041 ;
1042 [label=<gini = 0.0<br/>samples = 0.0%>, fillcolor="#e58139"] ;
1041 -> 1042 ;
1043 [label=<gini = 0.0<br/>samples = 0.0%>, fillcolor="#e58139"] ;
1041 -> 1043 ;
1044 [label=<gini = 0.0<br/>samples = 0.0%>, fillcolor="#e58139"] ;
1034 -> 1044 ;
1045 [label=<gini = 0.0<br/>samples = 0.0%>, fillcolor="#e58139"] ;
1033 -> 1045 ;
1046 [label=<Iva_N6.6 &le; 0.5<br/>gini = 0.008<br/>samples = 0.1%>, fillcolor="#eca471"] ;
1032 -> 1046 ;
1047 [label=<Conto &le; -3.596<br/>gini = 0.006<br/>samples = 0.0%>, fillcolor="#ea995f"] ;
1046 -> 1047 ;
1048 [label=<Conto &le; -3.618<br/>gini = 0.015<br/>samples = 0.0%>, fillcolor="#f2bf9a"] ;
1047 -> 1048 ;
1049 [label=<gini = 0.0<br/>samples = 0.0%>, fillcolor="#e58139"] ;
1048 -> 1049 ;
1050 [label=<gini = 0.0<br/>samples = 0.0%>, fillcolor="#e58139"] ;
1048 -> 1050 ;
1051 [label=<Importo &le; -0.037<br/>gini = 0.004<br/>samples = 0.0%>, fillcolor="#e89152"] ;
1047 -> 1051 ;
1052 [label=<Conto &le; -1.344<br/>gini = 0.017<br/>samples = 0.0%>, fillcolor="#f3c7a6"] ;
1051 -> 1052 ;
1053 [label=<gini = 0.0<br/>samples = 0.0%>, fillcolor="#e58139"] ;
1052 -> 1053 ;
1054 [label=<Conto &le; 0.707<br/>gini = 0.015<br/>samples = 0.0%>, fillcolor="#f2bf9a"] ;
1052 -> 1054 ;
1055 [label=<gini = 0.0<br/>samples = 0.0%>, fillcolor="#e58139"] ;
1054 -> 1055 ;
1056 [label=<gini = 0.0<br/>samples = 0.0%>, fillcolor="#e58139"] ;
1054 -> 1056 ;
1057 [label=<CoDitta &le; -0.343<br/>gini = 0.001<br/>samples = 0.0%>, fillcolor="#e68742"] ;
1051 -> 1057 ;
1058 [label=<gini = 0.0<br/>samples = 0.0%>, fillcolor="#e58139"] ;
1057 -> 1058 ;
1059 [label=<CoDitta &le; -0.306<br/>gini = 0.005<br/>samples = 0.0%>, fillcolor="#e9965a"] ;
1057 -> 1059 ;
1060 [label=<Importo &le; -0.018<br/>gini = 0.017<br/>samples = 0.0%>, fillcolor="#f3c7a6"] ;
1059 -> 1060 ;
1061 [label=<gini = 0.0<br/>samples = 0.0%>, fillcolor="#e58139"] ;
1060 -> 1061 ;
1062 [label=<gini = 0.0<br/>samples = 0.0%>, fillcolor="#e58139"] ;
1060 -> 1062 ;
1063 [label=<gini = 0.0<br/>samples = 0.0%>, fillcolor="#e58139"] ;
1059 -> 1063 ;
1064 [label=<gini = 0.0<br/>samples = 0.0%>, fillcolor="#e58139"] ;
1046 -> 1064 ;
1065 [label=<gini = 0.0<br/>samples = 0.0%>, fillcolor="#e58139"] ;
1031 -> 1065 ;
1066 [label=<gini = 0.0<br/>samples = 0.0%>, fillcolor="#e58139"] ;
1030 -> 1066 ;
1067 [label=<Conto &le; -3.599<br/>gini = 0.012<br/>samples = 0.0%>, fillcolor="#efb185"] ;
1029 -> 1067 ;
1068 [label=<gini = 0.0<br/>samples = 0.0%>, fillcolor="#e58139"] ;
1067 -> 1068 ;
1069 [label=<gini = 0.0<br/>samples = 0.0%>, fillcolor="#e58139"] ;
1067 -> 1069 ;
1070 [label=<Ateco &le; 2.401<br/>gini = 0.012<br/>samples = 0.0%>, fillcolor="#efb285"] ;
1028 -> 1070 ;
1071 [label=<Ateco &le; 2.025<br/>gini = 0.017<br/>samples = 0.0%>, fillcolor="#f3c7a6"] ;
1070 -> 1071 ;
1072 [label=<TIva &le; 0.869<br/>gini = 0.017<br/>samples = 0.0%>, fillcolor="#f3c7a6"] ;
1071 -> 1072 ;
1073 [label=<gini = 0.0<br/>samples = 0.0%>, fillcolor="#e58139"] ;
1072 -> 1073 ;
1074 [label=<gini = 0.0<br/>samples = 0.0%>, fillcolor="#e58139"] ;
1072 -> 1074 ;
1075 [label=<gini = 0.0<br/>samples = 0.0%>, fillcolor="#e58139"] ;
1071 -> 1075 ;
1076 [label=<gini = 0.0<br/>samples = 0.0%>, fillcolor="#e58139"] ;
1070 -> 1076 ;
1077 [label=<Tdoc_TD24 &le; 0.5<br/>gini = 0.019<br/>samples = 4.1%>, fillcolor="#f6d2b8"] ;
7 -> 1077 ;
1078 [label=<Caus &le; 0.174<br/>gini = 0.013<br/>samples = 3.3%>, fillcolor="#f1b991"] ;
1077 -> 1078 ;
1079 [label=<Conto &le; 0.011<br/>gini = 0.004<br/>samples = 2.5%>, fillcolor="#e99254"] ;
1078 -> 1079 ;
